{"learner":{"attributes":{"best_iteration":"99","best_ntree_limit":"100","scikit_learn":"{\"use_label_encoder\": null, \"n_estimators\": 100, \"objective\": \"binary:logistic\", \"max_depth\": null, \"max_leaves\": null, \"max_bin\": null, \"grow_policy\": null, \"learning_rate\": null, \"verbosity\": null, \"booster\": null, \"tree_method\": null, \"gamma\": null, \"min_child_weight\": null, \"max_delta_step\": null, \"subsample\": null, \"sampling_method\": null, \"colsample_bytree\": null, \"colsample_bylevel\": null, \"colsample_bynode\": null, \"reg_alpha\": null, \"reg_lambda\": null, \"scale_pos_weight\": null, \"base_score\": null, \"missing\": NaN, \"num_parallel_tree\": null, \"random_state\": 42, \"n_jobs\": null, \"monotone_constraints\": null, \"interaction_constraints\": null, \"importance_type\": null, \"gpu_id\": null, \"validate_parameters\": null, \"predictor\": null, \"enable_categorical\": false, \"feature_types\": null, \"max_cat_to_onehot\": null, \"max_cat_threshold\": null, \"eval_metric\": \"logloss\", \"early_stopping_rounds\": null, \"callbacks\": null, \"classes_\": [0, 1], \"n_classes_\": 2, \"_estimator_type\": \"classifier\"}"},"feature_names":["user_total_orders","user_avg_days_between_orders","prod_total_orders","prod_reorder_ratio","up_total_bought","up_reorder_ratio","up_last_order_number"],"feature_types":["int","float","int","float","int","float","int"],"gradient_booster":{"model":{"gbtree_model_param":{"num_parallel_tree":"1","num_trees":"100","size_leaf_vector":"0"},"tree_info":[0,0,0,0,0,0,0,0,0,0,0,0,0,0,0,0,0,0,0,0,0,0,0,0,0,0,0,0,0,0,0,0,0,0,0,0,0,0,0,0,0,0,0,0,0,0,0,0,0,0,0,0,0,0,0,0,0,0,0,0,0,0,0,0,0,0,0,0,0,0,0,0,0,0,0,0,0,0,0,0,0,0,0,0,0,0,0,0,0,0,0,0,0,0,0,0,0,0,0,0],"trees":[{"base_weights":[-1.6088431E0,-1.7616264E0,-1.1097846E0,-1.558095E0,-1.839367E0,-6.003841E-1,-1.2946064E0,-1.6549935E0,-1.1295178E0,-1.875157E0,-1.7184969E0,-7.521504E-1,1.0389541E-1,-1.483139E0,-5.622949E-1,-1.747769E0,-1.521148E0,-8.3922786E-1,-1.2765293E0,-1.8220303E0,-1.9150653E0,-1.5707635E0,-1.8047504E0,-1.817361E-1,-9.8845696E-1,-3.691545E-2,6.547837E-1,-1.3036581E0,-1.6446999E0,-1.4918901E-1,-8.4459186E-1,-1.8427293E0,-1.6957431E0,-1.629592E0,-1.4403449E0,-1.0307508E0,-6.2846076E-1,-1.4669995E0,-1.1359487E0,-1.8789246E0,-1.7285854E0,-1.9509373E0,-1.8798678E0,-1.7162474E0,-1.4429519E0,-1.8967013E0,-1.7578719E0,-3.7076285E-1,1.9647801E-1,-1.1796377E0,-7.711578E-1,4.815272E-1,-3.1937903E-1,5.108322E-1,9.9756044E-1,-1.7049307E0,-1.1661228E0,-1.8674816E0,-1.5534515E0,-4.5292035E-1,2.6116505E-1,-1.105718E0,-1.4164041E-1,-5.676797E-1,-5.411069E-1,-5.289885E-1,-4.9396995E-1,-4.5897904E-1,-5.2179414E-1,-3.730317E-1,-4.557499E-1,-3.7940148E-1,-2.8240424E-1,-2.7188134E-1,-1.5606458E-1,-3.928477E-1,-4.6954933E-1,-3.8351956E-1,-2.8495312E-1,-5.6853956E-1,-5.380538E-1,-5.465278E-1,-4.879137E-1,-5.7847196E-1,-5.896308E-1,-5.3700197E-1,-5.7380027E-1,-4.7993845E-1,-5.353E-1,-4.6887022E-1,-3.9614463E-1,-5.546305E-1,-5.801446E-1,-4.8124608E-1,-5.4811007E-1,9.775258E-2,-1.6510051E-1,1.16488226E-1,-1.9737944E-2,-4.3271944E-1,-3.2153368E-1,-1.5462703E-1,-2.8021047E-1,2.2688647E-1,1.0305882E-1,-2.8536898E-1,-5.364157E-2,3.385532E-1,1.0139137E-1,2.738699E-1,4.0203393E-1,-4.6725005E-1,-5.4115736E-1,-3.96429E-1,-2.4994521E-1,-5.375988E-1,-5.7630277E-1,-4.01247E-1,-5.0126636E-1,-2.181618E-2,-2.0918456E-1,2.3190834E-1,3.4960162E-2,-5.3155637E-1,-3.0459553E-1,-1.1093512E-1,1.0567874E-1],"categories":[],"categories_nodes":[],"categories_segments":[],"categories_sizes":[],"default_left":[0,0,0,0,0,0,0,0,0,0,0,0,0,0,0,0,0,0,0,0,0,0,0,0,0,0,0,0,0,0,0,0,0,0,0,0,0,0,0,0,0,0,0,0,0,0,0,0,0,0,0,0,0,0,0,0,0,0,0,0,0,0,0,0,0,0,0,0,0,0,0,0,0,0,0,0,0,0,0,0,0,0,0,0,0,0,0,0,0,0,0,0,0,0,0,0,0,0,0,0,0,0,0,0,0,0,0,0,0,0,0,0,0,0,0,0,0,0,0,0,0,0,0,0,0,0,0],"id":0,"left_children":[1,3,5,7,9,11,13,15,17,19,21,23,25,27,29,31,33,35,37,39,41,43,45,47,49,51,53,55,57,59,61,63,65,67,69,71,73,75,77,79,81,83,85,87,89,91,93,95,97,99,101,103,105,107,109,111,113,115,117,119,121,123,125,-1,-1,-1,-1,-1,-1,-1,-1,-1,-1,-1,-1,-1,-1,-1,-1,-1,-1,-1,-1,-1,-1,-1,-1,-1,-1,-1,-1,-1,-1,-1,-1,-1,-1,-1,-1,-1,-1,-1,-1,-1,-1,-1,-1,-1,-1,-1,-1,-1,-1,-1,-1,-1,-1,-1,-1,-1,-1,-1,-1,-1,-1,-1,-1],"loss_changes":[1.29149E5,2.05165E4,3.7377656E4,1.4883375E4,4.056E3,1.12978125E4,4.0219875E4,3.6275E3,2.8197656E3,1.5315E3,2.7290625E3,1.1721387E4,1.4537058E3,6.7156875E3,6.955674E3,8.49875E2,1.0464062E3,8.9646094E2,1.1731719E3,1.6479375E3,5.1825E2,1.4671875E3,5.8015625E2,1.8212572E3,2.5534805E3,2.1859348E3,1.8773499E2,6.0553125E3,2.4755312E3,3.0181194E3,6.503797E3,1.1475E2,3.67625E2,5.560625E2,1.0626719E3,2.4228223E2,3.1777783E2,2.8598047E2,6.681387E2,2.63875E2,1.1164375E3,6.3625E1,6.1175E2,2.901797E2,6.161094E2,7.7703125E1,9.5034375E2,2.1248787E3,4.2711374E2,9.2541797E2,1.1983301E3,1.993512E2,8.580695E2,2.8670312E2,3.1467651E1,4.0576562E2,4.2260312E3,1.396875E2,2.1915469E3,1.2927617E3,7.6243243E2,1.5539609E3,1.0816671E3,0E0,0E0,0E0,0E0,0E0,0E0,0E0,0E0,0E0,0E0,0E0,0E0,0E0,0E0,0E0,0E0,0E0,0E0,0E0,0E0,0E0,0E0,0E0,0E0,0E0,0E0,0E0,0E0,0E0,0E0,0E0,0E0,0E0,0E0,0E0,0E0,0E0,0E0,0E0,0E0,0E0,0E0,0E0,0E0,0E0,0E0,0E0,0E0,0E0,0E0,0E0,0E0,0E0,0E0,0E0,0E0,0E0,0E0,0E0,0E0,0E0,0E0,0E0,0E0],"parents":[2147483647,0,0,1,1,2,2,3,3,4,4,5,5,6,6,7,7,8,8,9,9,10,10,11,11,12,12,13,13,14,14,15,15,16,16,17,17,18,18,19,19,20,20,21,21,22,22,23,23,24,24,25,25,26,26,27,27,28,28,29,29,30,30,31,31,32,32,33,33,34,34,35,35,36,36,37,37,38,38,39,39,40,40,41,41,42,42,43,43,44,44,45,45,46,46,47,47,48,48,49,49,50,50,51,51,52,52,53,53,54,54,55,55,56,56,57,57,58,58,59,59,60,60,61,61,62,62],"right_children":[2,4,6,8,10,12,14,16,18,20,22,24,26,28,30,32,34,36,38,40,42,44,46,48,50,52,54,56,58,60,62,64,66,68,70,72,74,76,78,80,82,84,86,88,90,92,94,96,98,100,102,104,106,108,110,112,114,116,118,120,122,124,126,-1,-1,-1,-1,-1,-1,-1,-1,-1,-1,-1,-1,-1,-1,-1,-1,-1,-1,-1,-1,-1,-1,-1,-1,-1,-1,-1,-1,-1,-1,-1,-1,-1,-1,-1,-1,-1,-1,-1,-1,-1,-1,-1,-1,-1,-1,-1,-1,-1,-1,-1,-1,-1,-1,-1,-1,-1,-1,-1,-1,-1,-1,-1,-1],"split_conditions":[3E0,9E0,1.5E1,2E0,2E0,6E0,1E1,5.791356E-1,5E0,2E1,1.9E1,7E0,9E0,3.2E1,3.8E1,3.9558232E-1,3E0,6.2178516E-1,5E0,9E0,1.8E1,9E0,1.7E1,4E0,4E0,1E1,1.1E1,1.4E1,3E1,1.4E1,2.2E1,2.7557287E-1,3E0,5E0,5E0,3E0,3E0,6E0,6.159047E-1,2.1552E4,5.364432E-1,2.7E1,3.2E1,1.1E1,5.776515E-1,2.6E1,3.2E1,4E0,6E0,7E0,1E1,8E0,1E1,1.1E1,1.3E1,1.8E1,6E0,3.9E1,4.7E1,2.3E1,2.3E1,3.6E1,3.4E1,-5.676797E-1,-5.411069E-1,-5.289885E-1,-4.9396995E-1,-4.5897904E-1,-5.2179414E-1,-3.730317E-1,-4.557499E-1,-3.7940148E-1,-2.8240424E-1,-2.7188134E-1,-1.5606458E-1,-3.928477E-1,-4.6954933E-1,-3.8351956E-1,-2.8495312E-1,-5.6853956E-1,-5.380538E-1,-5.465278E-1,-4.879137E-1,-5.7847196E-1,-5.896308E-1,-5.3700197E-1,-5.7380027E-1,-4.7993845E-1,-5.353E-1,-4.6887022E-1,-3.9614463E-1,-5.546305E-1,-5.801446E-1,-4.8124608E-1,-5.4811007E-1,9.775258E-2,-1.6510051E-1,1.16488226E-1,-1.9737944E-2,-4.3271944E-1,-3.2153368E-1,-1.5462703E-1,-2.8021047E-1,2.2688647E-1,1.0305882E-1,-2.8536898E-1,-5.364157E-2,3.385532E-1,1.0139137E-1,2.738699E-1,4.0203393E-1,-4.6725005E-1,-5.4115736E-1,-3.96429E-1,-2.4994521E-1,-5.375988E-1,-5.7630277E-1,-4.01247E-1,-5.0126636E-1,-2.181618E-2,-2.0918456E-1,2.3190834E-1,3.4960162E-2,-5.3155637E-1,-3.0459553E-1,-1.1093512E-1,1.0567874E-1],"split_indices":[4,0,0,4,4,4,4,3,0,0,0,0,4,0,0,3,6,3,6,6,6,6,6,4,4,0,4,6,6,4,4,3,6,0,0,6,6,0,3,2,3,0,0,0,3,0,0,0,0,6,0,0,6,0,4,0,4,0,0,0,0,6,4,0,0,0,0,0,0,0,0,0,0,0,0,0,0,0,0,0,0,0,0,0,0,0,0,0,0,0,0,0,0,0,0,0,0,0,0,0,0,0,0,0,0,0,0,0,0,0,0,0,0,0,0,0,0,0,0,0,0,0,0,0,0,0,0],"split_type":[0,0,0,0,0,0,0,0,0,0,0,0,0,0,0,0,0,0,0,0,0,0,0,0,0,0,0,0,0,0,0,0,0,0,0,0,0,0,0,0,0,0,0,0,0,0,0,0,0,0,0,0,0,0,0,0,0,0,0,0,0,0,0,0,0,0,0,0,0,0,0,0,0,0,0,0,0,0,0,0,0,0,0,0,0,0,0,0,0,0,0,0,0,0,0,0,0,0,0,0,0,0,0,0,0,0,0,0,0,0,0,0,0,0,0,0,0,0,0,0,0,0,0,0,0,0,0],"sum_hessian":[1.6938358E6,1.2968205E6,3.9701525E5,3.584335E5,9.38387E5,1.05698E5,2.9131725E5,2.923355E5,6.6098E4,7.23996E5,2.14391E5,8.6959E4,1.8739E4,2.316725E5,5.964475E4,1.7265025E5,1.1968525E5,2.2223E4,4.3875E4,3.105855E5,4.134105E5,7.9037E4,1.35354E5,2.547275E4,6.148625E4,1.4925E4,3.814E3,1.09754E5,1.219185E5,2.421325E4,3.54315E4,6.10975E4,1.1155275E5,5.1094E4,6.859125E4,1.1641E4,1.0582E4,1.86275E4,2.52475E4,1.9303575E5,1.1754975E5,2.047165E5,2.08694E5,3.695725E4,4.207975E4,4.569175E4,8.966225E4,1.698425E4,8.4885E3,3.27065E4,2.877975E4,5.2635E3,9.6615E3,2.68775E3,1.12625E3,2.801275E4,8.174125E4,3.54205E4,8.6498E4,1.391425E4,1.0299E4,2.583425E4,9.59725E3,2.690775E4,3.418975E4,4.69815E4,6.457125E4,2.678225E4,2.431175E4,1.961275E4,4.89785E4,3.21525E3,8.42575E3,2.965E3,7.617E3,7.1575E3,1.147E4,1.429775E4,1.094975E4,1.62231E5,3.080475E4,6.148325E4,5.60665E4,7.984825E4,1.2486825E5,5.581975E4,1.5287425E5,1.36445E4,2.331275E4,2.125275E4,2.0827E4,1.996175E4,2.573E4,2.78305E4,6.183175E4,3.48075E3,1.35035E4,4.9025E3,3.586E3,9.51475E3,2.319175E4,1.11995E4,1.758025E4,1.75825E3,3.50525E3,1.75725E3,7.90425E3,5.865E2,2.10125E3,9.06E2,2.2025E2,1.12555E4,1.675725E4,5.573975E4,2.60015E4,1.471025E4,2.071025E4,3.04725E4,5.60255E4,5.4445E3,8.46975E3,2.268E3,8.031E3,3.08475E3,2.27495E4,6.565E3,3.03225E3],"tree_param":{"num_deleted":"0","num_feature":"7","num_nodes":"127","size_leaf_vector":"0"}},{"base_weights":[-1.2096467E0,-1.3359252E0,-8.109284E-1,-1.1862137E0,-1.4172914E0,-4.7696686E-1,-9.833635E-1,-1.2609633E0,-8.740643E-1,-1.4466677E0,-1.3205492E0,-6.612117E-1,-1.0930047E-1,-1.1601244E0,-4.8453414E-1,-1.3227162E0,-1.1179756E0,-6.661747E-1,-1.0137582E0,-1.4717196E0,-1.3927766E0,-1.2272575E0,-1.3944951E0,-2.5303134E-1,-8.733652E-1,-2.490368E-1,2.9580644E-1,-1.2619188E0,-1.0150388E0,-6.693266E-1,-8.266375E-2,-1.4049093E0,-1.2759179E0,-1.0237322E0,-1.1996284E0,-7.486109E-1,-3.4847817E-1,-1.1786374E0,-8.7767273E-1,-1.4429246E0,-1.4963402E0,-1.4570258E0,-1.3463403E0,-1.350584E0,-1.1129303E0,-1.4710836E0,-1.3389964E0,1.2016057E-1,-4.2592245E-1,-1.1518912E0,-7.690297E-1,2.781514E-1,-4.2240223E-1,2.1311648E-1,7.3552823E-1,-1.1750692E0,-1.3591932E0,-8.731508E-1,-1.180596E0,-4.2889217E-1,-9.683318E-1,2.6023048E-1,-4.807952E-1,-4.3988776E-1,-4.1339487E-1,-3.549004E-1,-3.9439857E-1,-3.3920103E-1,-2.7257586E-1,-3.9513776E-1,-2.980855E-1,-1.6691533E-1,-2.5054753E-1,-3.6326062E-2,-1.4421302E-1,-3.1163684E-1,-3.744971E-1,-3.218312E-1,-2.3679107E-1,-4.43459E-1,-4.1399226E-1,-4.556302E-1,-4.4136742E-1,-4.2084694E-1,-4.454094E-1,-3.6723304E-1,-4.2457193E-1,-3.7908477E-1,-4.253529E-1,-2.624521E-1,-3.486022E-1,-4.2990184E-1,-4.5070198E-1,-3.6957923E-1,-4.258624E-1,-8.387204E-3,1.1889984E-1,-2.6190048E-1,-8.499949E-2,-2.803061E-1,-3.974429E-1,-1.4096831E-1,-2.614527E-1,1.5913835E-1,4.1095644E-2,-2.816007E-1,-9.997418E-2,1.8347012E-1,1.7831512E-2,1.9474216E-1,2.7713415E-1,-4.0619847E-1,-3.1462437E-1,-4.4053108E-1,-3.8492066E-1,-3.682697E-1,-2.2713087E-1,-4.2246896E-1,-3.2520807E-1,-3.417227E-1,-1.0911457E-1,-4.2361814E-1,-2.6291126E-1,4.1094072E-2,2.1993215E-1,-4.588578E-1,-1.1759101E-1],"categories":[],"categories_nodes":[],"categories_segments":[],"categories_sizes":[],"default_left":[0,0,0,0,0,0,0,0,0,0,0,0,0,0,0,0,0,0,0,0,0,0,0,0,0,0,0,0,0,0,0,0,0,0,0,0,0,0,0,0,0,0,0,0,0,0,0,0,0,0,0,0,0,0,0,0,0,0,0,0,0,0,0,0,0,0,0,0,0,0,0,0,0,0,0,0,0,0,0,0,0,0,0,0,0,0,0,0,0,0,0,0,0,0,0,0,0,0,0,0,0,0,0,0,0,0,0,0,0,0,0,0,0,0,0,0,0,0,0,0,0,0,0,0,0,0,0],"id":1,"left_children":[1,3,5,7,9,11,13,15,17,19,21,23,25,27,29,31,33,35,37,39,41,43,45,47,49,51,53,55,57,59,61,63,65,67,69,71,73,75,77,79,81,83,85,87,89,91,93,95,97,99,101,103,105,107,109,111,113,115,117,119,121,123,125,-1,-1,-1,-1,-1,-1,-1,-1,-1,-1,-1,-1,-1,-1,-1,-1,-1,-1,-1,-1,-1,-1,-1,-1,-1,-1,-1,-1,-1,-1,-1,-1,-1,-1,-1,-1,-1,-1,-1,-1,-1,-1,-1,-1,-1,-1,-1,-1,-1,-1,-1,-1,-1,-1,-1,-1,-1,-1,-1,-1,-1,-1,-1,-1],"loss_changes":[8.016125E4,1.47275E4,2.2052828E4,9.9334375E3,2.2245E3,8.833607E3,2.2268031E4,3.031625E3,2.3883203E3,8.0925E2,1.2571875E3,7.5225586E3,2.4644636E3,2.7527656E3,4.907209E3,9.21E2,7.9609375E2,8.656875E2,1.1028867E3,2.88625E2,5.6703125E2,1.1362812E3,4.306875E2,1.917069E3,1.6602188E3,2.9585654E3,4.0583466E2,9.241719E2,1.8052422E3,3.2537578E3,2.841806E3,1.418125E2,5.487656E2,5.913164E2,1.3423438E3,4.362744E2,2.0482422E2,2.1547461E2,4.639121E2,4.178125E2,1.2228125E2,1.1790625E2,9.3065625E2,2.2525E2,4.8835547E2,4.8734375E1,5.0732812E2,3.8483215E2,1.2941741E3,5.8464453E2,1.2744414E3,2.8526123E2,1.120898E3,5.7553955E2,2.8135742E1,1.3072734E3,4.279297E2,1.7022402E3,7.784961E2,1.1610254E3,8.219961E2,6.517422E2,8.966875E2,0E0,0E0,0E0,0E0,0E0,0E0,0E0,0E0,0E0,0E0,0E0,0E0,0E0,0E0,0E0,0E0,0E0,0E0,0E0,0E0,0E0,0E0,0E0,0E0,0E0,0E0,0E0,0E0,0E0,0E0,0E0,0E0,0E0,0E0,0E0,0E0,0E0,0E0,0E0,0E0,0E0,0E0,0E0,0E0,0E0,0E0,0E0,0E0,0E0,0E0,0E0,0E0,0E0,0E0,0E0,0E0,0E0,0E0,0E0,0E0,0E0,0E0,0E0,0E0],"parents":[2147483647,0,0,1,1,2,2,3,3,4,4,5,5,6,6,7,7,8,8,9,9,10,10,11,11,12,12,13,13,14,14,15,15,16,16,17,17,18,18,19,19,20,20,21,21,22,22,23,23,24,24,25,25,26,26,27,27,28,28,29,29,30,30,31,31,32,32,33,33,34,34,35,35,36,36,37,37,38,38,39,39,40,40,41,41,42,42,43,43,44,44,45,45,46,46,47,47,48,48,49,49,50,50,51,51,52,52,53,53,54,54,55,55,56,56,57,57,58,58,59,59,60,60,61,61,62,62],"right_children":[2,4,6,8,10,12,14,16,18,20,22,24,26,28,30,32,34,36,38,40,42,44,46,48,50,52,54,56,58,60,62,64,66,68,70,72,74,76,78,80,82,84,86,88,90,92,94,96,98,100,102,104,106,108,110,112,114,116,118,120,122,124,126,-1,-1,-1,-1,-1,-1,-1,-1,-1,-1,-1,-1,-1,-1,-1,-1,-1,-1,-1,-1,-1,-1,-1,-1,-1,-1,-1,-1,-1,-1,-1,-1,-1,-1,-1,-1,-1,-1,-1,-1,-1,-1,-1,-1,-1,-1,-1,-1,-1,-1,-1,-1,-1,-1,-1,-1,-1,-1,-1,-1,-1,-1,-1,-1],"split_conditions":[3E0,1.1E1,1.8E1,2E0,2E0,5E0,9E0,6.1697966E-1,6E0,5.903027E-1,2.4E1,8E0,8E0,5E0,1.7E1,4.22675E-1,6E0,7.0458454E-1,6E0,2.4E1,1E1,1.1E1,2.3E1,5E0,8E0,9E0,1.2E1,3.7E1,3.9E1,4.3E1,5.3E1,2.5170067E-1,5E0,3E0,6E0,4E0,4E0,7E0,5.1988196E-1,1.1E1,2.2E1,1.5E1,2.4E1,1.4E1,1.4E1,3.2E1,4.4E1,6.9822043E-1,5E0,1E1,1.1E1,7E0,9E0,1.2E1,1.4E1,1.8E1,3.6E1,1.8E1,3.8E1,1.8E1,4.1E1,2.7E1,5.1E1,-4.3988776E-1,-4.1339487E-1,-3.549004E-1,-3.9439857E-1,-3.3920103E-1,-2.7257586E-1,-3.9513776E-1,-2.980855E-1,-1.6691533E-1,-2.5054753E-1,-3.6326062E-2,-1.4421302E-1,-3.1163684E-1,-3.744971E-1,-3.218312E-1,-2.3679107E-1,-4.43459E-1,-4.1399226E-1,-4.556302E-1,-4.4136742E-1,-4.2084694E-1,-4.454094E-1,-3.6723304E-1,-4.2457193E-1,-3.7908477E-1,-4.253529E-1,-2.624521E-1,-3.486022E-1,-4.2990184E-1,-4.5070198E-1,-3.6957923E-1,-4.258624E-1,-8.387204E-3,1.1889984E-1,-2.6190048E-1,-8.499949E-2,-2.803061E-1,-3.974429E-1,-1.4096831E-1,-2.614527E-1,1.5913835E-1,4.1095644E-2,-2.816007E-1,-9.997418E-2,1.8347012E-1,1.7831512E-2,1.9474216E-1,2.7713415E-1,-4.0619847E-1,-3.1462437E-1,-4.4053108E-1,-3.8492066E-1,-3.682697E-1,-2.2713087E-1,-4.2246896E-1,-3.2520807E-1,-3.417227E-1,-1.0911457E-1,-4.2361814E-1,-2.6291126E-1,4.1094072E-2,2.1993215E-1,-4.588578E-1,-1.1759101E-1],"split_indices":[4,0,0,4,4,4,4,3,0,3,0,0,4,4,4,3,0,3,6,0,6,6,6,0,6,0,4,0,0,0,0,3,0,6,6,0,0,0,3,6,6,0,0,0,0,0,0,3,6,0,0,0,6,0,4,6,6,6,6,6,6,4,6,0,0,0,0,0,0,0,0,0,0,0,0,0,0,0,0,0,0,0,0,0,0,0,0,0,0,0,0,0,0,0,0,0,0,0,0,0,0,0,0,0,0,0,0,0,0,0,0,0,0,0,0,0,0,0,0,0,0,0,0,0,0,0,0],"split_type":[0,0,0,0,0,0,0,0,0,0,0,0,0,0,0,0,0,0,0,0,0,0,0,0,0,0,0,0,0,0,0,0,0,0,0,0,0,0,0,0,0,0,0,0,0,0,0,0,0,0,0,0,0,0,0,0,0,0,0,0,0,0,0,0,0,0,0,0,0,0,0,0,0,0,0,0,0,0,0,0,0,0,0,0,0,0,0,0,0,0,0,0,0,0,0,0,0,0,0,0,0,0,0,0,0,0,0,0,0,0,0,0,0,0,0,0,0,0,0,0,0,0,0,0,0,0,0],"sum_hessian":[1.592117E6,1.2091601E6,3.8295688E5,4.2576997E5,7.833902E5,1.3040343E5,2.5255344E5,3.435079E5,8.2262055E4,6.009072E5,1.8248298E5,8.687024E4,4.3533188E4,1.8647458E5,6.607887E4,2.3989494E5,1.0361298E5,3.3063453E4,4.9198605E4,4.101966E5,1.907106E5,8.0694516E4,1.0178846E5,2.9710277E4,5.7159965E4,3.2368484E4,1.1164701E4,1.0958222E5,7.689236E4,4.526428E4,2.0814586E4,8.702389E4,1.5287105E5,4.8104414E4,5.5508562E4,2.6250572E4,6.8128813E3,2.2242395E4,2.695621E4,1.8909739E5,2.2109922E5,7.9996805E4,1.1071379E5,3.8814215E4,4.18803E4,4.2757414E4,5.9031047E4,9.406437E3,2.0303842E4,1.5574213E4,4.1585754E4,8.0100522E3,2.4358434E4,9.398745E3,1.7659552E3,5.7900203E4,5.1682016E4,4.1409375E4,3.548298E4,2.509082E4,2.017346E4,1.1183255E4,9.631331E3,2.6517984E4,6.0505906E4,4.499491E4,1.0787614E5,2.49366E4,2.3167816E4,3.5344492E4,2.016407E4,8.1519937E3,1.8098578E4,2.5057712E3,4.30711E3,7.4025845E3,1.4839811E4,8.399967E3,1.8556244E4,1.2117744E5,6.791996E4,1.1676919E5,1.0433003E5,2.7054914E4,5.2941895E4,3.991746E4,7.079633E4,1.6935639E4,2.1878576E4,7.1605825E3,3.471972E4,1.9296486E4,2.3460928E4,2.5350156E4,3.368089E4,6.1232734E3,3.283163E3,4.908528E3,1.5395313E4,6.900074E3,8.674139E3,1.0612789E4,3.0972965E4,2.8727495E3,5.1373027E3,3.585643E3,2.077279E4,2.615194E3,6.7835513E3,1.2135248E3,5.524305E2,2.3957002E4,3.39432E4,2.1216568E4,3.0465447E4,1.0211985E4,3.119739E4,1.0565142E4,2.491784E4,2.1077542E3,2.2983066E4,3.4606802E3,1.6712781E4,8.872122E3,2.3111338E3,7.507885E2,8.880543E3],"tree_param":{"num_deleted":"0","num_feature":"7","num_nodes":"127","size_leaf_vector":"0"}},{"base_weights":[-9.8230743E-1,-1.1060101E0,-6.1904097E-1,-9.632397E-1,-1.1987767E0,-3.743887E-1,-7.921135E-1,-1.0352225E0,-6.825924E-1,-1.2303423E0,-1.0978491E0,-4.6496615E-1,1.0454108E-1,-9.2849225E-1,-2.8942102E-1,-1.1295155E0,-9.430956E-1,-4.8988256E-1,-7.987088E-1,-1.2595146E0,-1.1790538E0,-1.0145053E0,-1.1781261E0,-1.6029648E-1,-6.245548E-1,5.044157E-1,3.1260025E-2,-1.1940472E0,-8.5866606E-1,-1.4976373E-1,-6.580064E-1,-1.2106196E0,-1.0891868E0,-8.471385E-1,-1.0143689E0,-6.982394E-1,-3.9020768E-1,-9.5090413E-1,-6.9068694E-1,-1.2318776E0,-1.2874161E0,-1.2416584E0,-1.1227919E0,-1.1429486E0,-8.973706E-1,-1.2614003E0,-1.1117384E0,-2.6021823E-1,1.2058146E-1,-9.4594E-1,-5.221926E-1,3.9394057E-1,6.5165585E-1,-9.5311806E-2,3.986722E-1,-1.0685872E0,-1.2597739E0,-6.34483E-1,-9.7830653E-1,-3.042154E-1,2.6318315E-1,-8.089003E-1,-1.0312708E-1,-3.809964E-1,-3.5621092E-1,-3.0618465E-1,-3.401073E-1,-2.836281E-1,-2.230235E-1,-3.3593807E-1,-2.5463027E-1,-2.6322082E-1,-1.942051E-1,-1.9033977E-1,-9.483144E-2,-2.5425604E-1,-3.189328E-1,-2.3300348E-1,-1.5409894E-1,-3.810626E-1,-3.4944898E-1,-3.9321378E-1,-3.7692955E-1,-3.523957E-1,-3.826338E-1,-2.8332627E-1,-3.5485423E-1,-3.1759048E-1,-3.6089382E-1,-3.009502E-1,-2.3493357E-1,-3.6610934E-1,-3.8811377E-1,-2.8206512E-1,-3.5048544E-1,-1.1199967E-1,-2.583503E-2,-3.271979E-3,7.856053E-2,-2.2084449E-1,-3.3009264E-1,-8.561534E-2,-1.892611E-1,1.7082879E-1,9.957458E-2,2.4071768E-1,1.711917E-1,-2.3008263E-1,-8.546923E-3,7.480975E-2,1.7600822E-1,-3.4853312E-1,-2.9168344E-1,-3.8207564E-1,-3.516947E-1,-2.2060136E-1,-1.1097609E-1,-3.5587215E-1,-2.7411053E-1,-3.2528177E-1,-7.654438E-2,1.9942541E-1,4.3589238E-2,-4.1026706E-1,-2.1459226E-1,-9.3575634E-2,1.17073186E-1],"categories":[],"categories_nodes":[],"categories_segments":[],"categories_sizes":[],"default_left":[0,0,0,0,0,0,0,0,0,0,0,0,0,0,0,0,0,0,0,0,0,0,0,0,0,0,0,0,0,0,0,0,0,0,0,0,0,0,0,0,0,0,0,0,0,0,0,0,0,0,0,0,0,0,0,0,0,0,0,0,0,0,0,0,0,0,0,0,0,0,0,0,0,0,0,0,0,0,0,0,0,0,0,0,0,0,0,0,0,0,0,0,0,0,0,0,0,0,0,0,0,0,0,0,0,0,0,0,0,0,0,0,0,0,0,0,0,0,0,0,0,0,0,0,0,0,0],"id":2,"left_children":[1,3,5,7,9,11,13,15,17,19,21,23,25,27,29,31,33,35,37,39,41,43,45,47,49,51,53,55,57,59,61,63,65,67,69,71,73,75,77,79,81,83,85,87,89,91,93,95,97,99,101,103,105,107,109,111,113,115,117,119,121,123,125,-1,-1,-1,-1,-1,-1,-1,-1,-1,-1,-1,-1,-1,-1,-1,-1,-1,-1,-1,-1,-1,-1,-1,-1,-1,-1,-1,-1,-1,-1,-1,-1,-1,-1,-1,-1,-1,-1,-1,-1,-1,-1,-1,-1,-1,-1,-1,-1,-1,-1,-1,-1,-1,-1,-1,-1,-1,-1,-1,-1,-1,-1,-1,-1],"loss_changes":[6.326875E4,1.3909375E4,1.5143953E4,8.356156E3,2.026875E3,6.428496E3,1.4360484E4,2.8588438E3,1.8892266E3,7.24125E2,1.01365625E3,6.0591465E3,6.906463E2,3.0542656E3,2.301033E3,5.308281E2,1.1380938E3,6.5918164E2,8.656367E2,2.3675E2,6.1796875E2,1.11875E3,4.2571094E2,1.202354E3,2.6899297E3,5.9120544E1,9.2640625E2,2.8151562E2,3.4987422E3,2.0678901E3,1.0283872E3,7.30625E1,3.3048438E2,7.2295703E2,1.6672031E3,9.310205E1,3.886057E2,2.528125E2,4.687998E2,3.9767188E2,1.09359375E2,1.8689844E2,9.9108594E2,1.7838281E2,4.6983008E2,4.3851562E1,4.1590625E2,6.2225024E2,2.0884662E2,6.389375E2,1.5961621E3,2.253897E1,1.8632874E1,6.6495654E2,1.4314514E2,1.0476758E2,2.5691406E1,1.211168E3,1.1416797E3,9.0287036E2,4.1770984E2,5.0395605E2,2.707694E2,0E0,0E0,0E0,0E0,0E0,0E0,0E0,0E0,0E0,0E0,0E0,0E0,0E0,0E0,0E0,0E0,0E0,0E0,0E0,0E0,0E0,0E0,0E0,0E0,0E0,0E0,0E0,0E0,0E0,0E0,0E0,0E0,0E0,0E0,0E0,0E0,0E0,0E0,0E0,0E0,0E0,0E0,0E0,0E0,0E0,0E0,0E0,0E0,0E0,0E0,0E0,0E0,0E0,0E0,0E0,0E0,0E0,0E0,0E0,0E0,0E0,0E0,0E0,0E0],"parents":[2147483647,0,0,1,1,2,2,3,3,4,4,5,5,6,6,7,7,8,8,9,9,10,10,11,11,12,12,13,13,14,14,15,15,16,16,17,17,18,18,19,19,20,20,21,21,22,22,23,23,24,24,25,25,26,26,27,27,28,28,29,29,30,30,31,31,32,32,33,33,34,34,35,35,36,36,37,37,38,38,39,39,40,40,41,41,42,42,43,43,44,44,45,45,46,46,47,47,48,48,49,49,50,50,51,51,52,52,53,53,54,54,55,55,56,56,57,57,58,58,59,59,60,60,61,61,62,62],"right_children":[2,4,6,8,10,12,14,16,18,20,22,24,26,28,30,32,34,36,38,40,42,44,46,48,50,52,54,56,58,60,62,64,66,68,70,72,74,76,78,80,82,84,86,88,90,92,94,96,98,100,102,104,106,108,110,112,114,116,118,120,122,124,126,-1,-1,-1,-1,-1,-1,-1,-1,-1,-1,-1,-1,-1,-1,-1,-1,-1,-1,-1,-1,-1,-1,-1,-1,-1,-1,-1,-1,-1,-1,-1,-1,-1,-1,-1,-1,-1,-1,-1,-1,-1,-1,-1,-1,-1,-1,-1,-1,-1,-1,-1,-1,-1,-1,-1,-1,-1,-1,-1,-1,-1,-1,-1,-1],"split_conditions":[3E0,1.2E1,2.1E1,2E0,2E0,7E0,1.1E1,5.433673E-1,6E0,5.7304126E-1,2.7E1,9E0,1.1E1,2E1,6.2E1,3.5766125E-1,6E0,5.517135E-1,6E0,2.7E1,1.2E1,1.2E1,2.6E1,7.158133E-1,9E0,7.073894E-1,1.1E1,2.5E1,3.5E1,2E1,2.9E1,2E-1,6E0,3E0,6E0,3E0,3E0,8E0,6.429026E-1,1.2E1,2.6E1,1.6E1,2.2E1,1.5E1,5.76E-1,3.5E1,3.9E1,4E0,4E0,1.1E1,1.3E1,9.931034E0,9E0,1.1E1,1.3E1,1.6E1,5.1939E4,7E0,3.4E1,2.1E1,3.5E1,5.8E1,4.5E1,-3.809964E-1,-3.5621092E-1,-3.0618465E-1,-3.401073E-1,-2.836281E-1,-2.230235E-1,-3.3593807E-1,-2.5463027E-1,-2.6322082E-1,-1.942051E-1,-1.9033977E-1,-9.483144E-2,-2.5425604E-1,-3.189328E-1,-2.3300348E-1,-1.5409894E-1,-3.810626E-1,-3.4944898E-1,-3.9321378E-1,-3.7692955E-1,-3.523957E-1,-3.826338E-1,-2.8332627E-1,-3.5485423E-1,-3.1759048E-1,-3.6089382E-1,-3.009502E-1,-2.3493357E-1,-3.6610934E-1,-3.8811377E-1,-2.8206512E-1,-3.5048544E-1,-1.1199967E-1,-2.583503E-2,-3.271979E-3,7.856053E-2,-2.2084449E-1,-3.3009264E-1,-8.561534E-2,-1.892611E-1,1.7082879E-1,9.957458E-2,2.4071768E-1,1.711917E-1,-2.3008263E-1,-8.546923E-3,7.480975E-2,1.7600822E-1,-3.4853312E-1,-2.9168344E-1,-3.8207564E-1,-3.516947E-1,-2.2060136E-1,-1.1097609E-1,-3.5587215E-1,-2.7411053E-1,-3.2528177E-1,-7.654438E-2,1.9942541E-1,4.3589238E-2,-4.1026706E-1,-2.1459226E-1,-9.3575634E-2,1.17073186E-1],"split_indices":[4,0,0,4,4,4,4,3,0,3,0,0,0,6,0,3,0,3,6,0,6,6,6,3,6,3,4,0,0,4,4,3,0,6,6,6,6,0,3,6,6,0,0,0,3,0,0,4,4,0,0,1,0,6,4,6,2,4,6,6,0,6,4,0,0,0,0,0,0,0,0,0,0,0,0,0,0,0,0,0,0,0,0,0,0,0,0,0,0,0,0,0,0,0,0,0,0,0,0,0,0,0,0,0,0,0,0,0,0,0,0,0,0,0,0,0,0,0,0,0,0,0,0,0,0,0,0],"split_type":[0,0,0,0,0,0,0,0,0,0,0,0,0,0,0,0,0,0,0,0,0,0,0,0,0,0,0,0,0,0,0,0,0,0,0,0,0,0,0,0,0,0,0,0,0,0,0,0,0,0,0,0,0,0,0,0,0,0,0,0,0,0,0,0,0,0,0,0,0,0,0,0,0,0,0,0,0,0,0,0,0,0,0,0,0,0,0,0,0,0,0,0,0,0,0,0,0,0,0,0,0,0,0,0,0,0,0,0,0,0,0,0,0,0,0,0,0,0,0,0,0,0,0,0,0,0,0],"sum_hessian":[1.4079591E6,1.0502999E6,3.576593E5,4.1366678E5,6.3663306E5,1.4818738E5,2.0947195E5,3.2922234E5,8.444442E4,4.849509E5,1.5168216E5,1.246189E5,2.3568482E4,1.6476964E5,4.4702305E4,1.6269289E5,1.6652947E5,3.1752447E4,5.2691973E4,3.091097E5,1.7584122E5,7.442624E4,7.725592E4,4.28384E4,8.17805E4,3.6493108E3,1.9919172E4,3.43016E4,1.3046805E5,3.2419816E4,1.2282486E4,5.4021938E4,1.0867095E5,7.098001E4,9.554945E4,1.0272718E4,2.1479729E4,2.1870354E4,3.082162E4,1.5531334E5,1.5379634E5,8.32191E4,9.262212E4,3.5495316E4,3.893092E4,3.4261516E4,4.2994402E4,3.1597668E4,1.124073E4,1.9753254E4,6.2027242E4,2.0870562E3,1.5622548E3,1.4815901E4,5.1032705E3,1.1798228E4,2.2503373E4,4.5401227E4,8.506682E4,2.3595004E4,8.8248125E3,9.656139E3,2.6263472E3,1.5187409E4,3.8834527E4,4.2780098E4,6.589085E4,3.644125E4,3.4538758E4,5.837877E4,3.7170684E4,2.2687983E3,8.00392E3,4.9979414E3,1.6481787E4,1.1387057E4,1.0483296E4,2.0742385E4,1.0079233E4,9.880739E4,5.6505957E4,8.7765664E4,6.603069E4,2.7908244E4,5.5310855E4,2.3334121E4,6.928799E4,1.4769723E4,2.0725596E4,2.0209947E4,1.8720977E4,1.5110392E4,1.9151123E4,1.0664247E4,3.2330156E4,1.9152875E4,1.2444795E4,5.822743E3,5.417987E3,8.37591E3,1.1377343E4,1.951273E4,4.2514516E4,5.428854E2,1.5441708E3,5.4302374E2,1.01923096E3,1.339733E3,1.3476169E4,2.8457854E3,2.2574849E3,5.9905957E3,5.8076323E3,1.942257E4,3.080802E3,3.2869246E4,1.2531982E4,2.0160812E4,6.4906004E4,1.3951001E3,2.2199904E4,2.0016641E3,6.8231484E3,1.3836284E3,8.272511E3,1.8456478E3,7.806994E2],"tree_param":{"num_deleted":"0","num_feature":"7","num_nodes":"127","size_leaf_vector":"0"}},{"base_weights":[-8.181542E-1,-9.4533306E-1,-4.7741336E-1,-7.682219E-1,-1.0360501E0,-2.9945672E-1,-6.5802205E-1,-8.4587854E-1,-4.8238054E-1,-1.0753491E0,-9.134409E-1,-4.434691E-1,-7.950893E-2,-8.4085053E-1,-3.4339404E-1,-9.04647E-1,-6.49297E-1,-1.8248542E-1,-5.376796E-1,-1.024733E0,-1.1272354E0,-7.949503E-1,-1.0060002E0,4.5159068E-2,-5.346691E-1,-1.874111E-1,1.22298405E-1,-1.0701653E0,-7.598135E-1,-4.874068E-1,-8.4654436E-2,-1.0247678E0,-8.5499585E-1,-4.3723193E-1,-6.997425E-1,-2.7485612E-1,2.8766725E-2,-7.4923414E-1,-4.5905256E-1,-1.09279E0,-9.234452E-1,-1.1753206E0,-1.0740027E0,-9.4840026E-1,-6.6910475E-1,-1.1154109E0,-9.436972E-1,-1.3665846E-1,1.3011856E-1,-3.9010066E-1,-6.4290804E-1,4.1775834E-2,-2.6912203E-1,4.4291027E-2,3.7896338E-1,-9.4340515E-1,-1.1166021E0,-6.2635773E-1,-9.6065956E-1,-1.0460678E0,-4.2965928E-1,1.8517878E-2,-4.8678908E-1,-3.317227E-1,-2.9719839E-1,-2.826163E-1,-2.394009E-1,-1.635922E-1,-7.644655E-2,-2.5324786E-1,-1.6695969E-1,-1.3293009E-1,-5.5882476E-2,-1.34018725E-2,1.0761196E-1,-1.8577819E-1,-2.465654E-1,-9.6620254E-2,-1.7430657E-1,-3.3429646E-1,-2.997764E-1,-3.1582767E-1,-2.5255588E-1,-3.5568413E-1,-3.3648694E-1,-2.8649166E-1,-3.3600897E-1,-2.619626E-1,-3.0482516E-1,-1.5389097E-1,-2.2950968E-1,-3.2502058E-1,-3.4731683E-1,-2.3442754E-1,-3.0531082E-1,-6.1927773E-3,-8.571261E-2,1.0150325E-1,1.82042E-2,-2.2213928E-1,-8.529156E-2,-2.7446532E-1,-1.4810103E-1,-6.4334353E-3,7.041138E-2,-2.494789E-1,-5.313847E-2,8.22227E-2,-3.261277E-2,9.0948015E-2,2.3544748E-1,-2.9869264E-1,-2.3664024E-1,-3.2761887E-1,-3.5387018E-1,-2.3147601E-1,-1.5405953E-1,-3.4068036E-1,-2.627192E-1,-2.5661013E-1,-3.534447E-1,-8.6494885E-2,-2.2347583E-1,-2.2613399E-2,1.3754666E-1,-3.961008E-1,-1.1060919E-1],"categories":[],"categories_nodes":[],"categories_segments":[],"categories_sizes":[],"default_left":[0,0,0,0,0,0,0,0,0,0,0,0,0,0,0,0,0,0,0,0,0,0,0,0,0,0,0,0,0,0,0,0,0,0,0,0,0,0,0,0,0,0,0,0,0,0,0,0,0,0,0,0,0,0,0,0,0,0,0,0,0,0,0,0,0,0,0,0,0,0,0,0,0,0,0,0,0,0,0,0,0,0,0,0,0,0,0,0,0,0,0,0,0,0,0,0,0,0,0,0,0,0,0,0,0,0,0,0,0,0,0,0,0,0,0,0,0,0,0,0,0,0,0,0,0,0,0],"id":3,"left_children":[1,3,5,7,9,11,13,15,17,19,21,23,25,27,29,31,33,35,37,39,41,43,45,47,49,51,53,55,57,59,61,63,65,67,69,71,73,75,77,79,81,83,85,87,89,91,93,95,97,99,101,103,105,107,109,111,113,115,117,119,121,123,125,-1,-1,-1,-1,-1,-1,-1,-1,-1,-1,-1,-1,-1,-1,-1,-1,-1,-1,-1,-1,-1,-1,-1,-1,-1,-1,-1,-1,-1,-1,-1,-1,-1,-1,-1,-1,-1,-1,-1,-1,-1,-1,-1,-1,-1,-1,-1,-1,-1,-1,-1,-1,-1,-1,-1,-1,-1,-1,-1,-1,-1,-1,-1,-1],"loss_changes":[5.2924688E4,1.4288375E4,1.066875E4,6.6863594E3,2.8328125E3,5.2961523E3,9.476328E3,2.7360625E3,1.0672139E3,1.1685E3,1.5648828E3,4.5028145E3,1.4406941E3,1.9354688E3,2.2561558E3,1.0867656E3,5.829512E2,1.9555792E2,9.0350977E2,1.5531094E3,5.6165625E2,1.2084805E3,5.452578E2,2.4553207E2,1.3321797E3,8.0734717E2,4.614997E2,1.5908398E2,2.0631133E3,1.2544727E3,8.9833704E2,1.4617969E2,6.3947656E2,2.0646167E2,9.1042773E2,1.0383197E2,7.3911224E1,1.385039E2,6.617373E2,2.7045312E2,9.5514844E2,6.25E1,5.707969E2,1.4267969E2,5.1489746E2,3.8121094E1,6.1253125E2,8.7529686E1,1.5660684E2,1.3512339E3,1.9759199E3,1.3821379E2,1.6442976E3,6.2157465E2,1.6505566E2,5.817334E1,2.9466797E1,7.575918E2,4.5564258E2,9.076465E1,1.5707979E3,7.119219E2,4.3468555E2,0E0,0E0,0E0,0E0,0E0,0E0,0E0,0E0,0E0,0E0,0E0,0E0,0E0,0E0,0E0,0E0,0E0,0E0,0E0,0E0,0E0,0E0,0E0,0E0,0E0,0E0,0E0,0E0,0E0,0E0,0E0,0E0,0E0,0E0,0E0,0E0,0E0,0E0,0E0,0E0,0E0,0E0,0E0,0E0,0E0,0E0,0E0,0E0,0E0,0E0,0E0,0E0,0E0,0E0,0E0,0E0,0E0,0E0,0E0,0E0,0E0,0E0,0E0,0E0],"parents":[2147483647,0,0,1,1,2,2,3,3,4,4,5,5,6,6,7,7,8,8,9,9,10,10,11,11,12,12,13,13,14,14,15,15,16,16,17,17,18,18,19,19,20,20,21,21,22,22,23,23,24,24,25,25,26,26,27,27,28,28,29,29,30,30,31,31,32,32,33,33,34,34,35,35,36,36,37,37,38,38,39,39,40,40,41,41,42,42,43,43,44,44,45,45,46,46,47,47,48,48,49,49,50,50,51,51,52,52,53,53,54,54,55,55,56,56,57,57,58,58,59,59,60,60,61,61,62,62],"right_children":[2,4,6,8,10,12,14,16,18,20,22,24,26,28,30,32,34,36,38,40,42,44,46,48,50,52,54,56,58,60,62,64,66,68,70,72,74,76,78,80,82,84,86,88,90,92,94,96,98,100,102,104,106,108,110,112,114,116,118,120,122,124,126,-1,-1,-1,-1,-1,-1,-1,-1,-1,-1,-1,-1,-1,-1,-1,-1,-1,-1,-1,-1,-1,-1,-1,-1,-1,-1,-1,-1,-1,-1,-1,-1,-1,-1,-1,-1,-1,-1,-1,-1,-1,-1,-1,-1,-1,-1,-1,-1,-1,-1,-1,-1,-1,-1,-1,-1,-1,-1,-1,-1,-1,-1,-1,-1],"split_conditions":[3E0,1E1,2.5E1,2E0,2E0,5E0,8E0,6.515754E-1,4E0,2.4E1,2.2E1,6E0,6.972211E-1,2.4E1,1.6E1,4.1666666E-1,4E0,6.899004E-1,4E0,1E1,2.2E1,1E1,2E1,5.9158415E-1,1.2E1,1.2E1,1E1,2.8E1,5.2E1,2.4E1,7.6E1,2.5E-1,3E0,3E0,4E0,3E0,7.970297E-1,5E0,7E0,1.804E4,4.7854203E-1,1.7565E4,3.7E1,1.3E1,1.5E1,3.3E1,3.5E1,5E0,9.384615E0,6E0,1.2E1,7E0,1.2E1,1.2E1,1.6E1,2.2E1,4.5E1,5.75899E-1,4.9E1,2.9E1,5.7E1,3E1,7.4E1,-3.317227E-1,-2.9719839E-1,-2.826163E-1,-2.394009E-1,-1.635922E-1,-7.644655E-2,-2.5324786E-1,-1.6695969E-1,-1.3293009E-1,-5.5882476E-2,-1.34018725E-2,1.0761196E-1,-1.8577819E-1,-2.465654E-1,-9.6620254E-2,-1.7430657E-1,-3.3429646E-1,-2.997764E-1,-3.1582767E-1,-2.5255588E-1,-3.5568413E-1,-3.3648694E-1,-2.8649166E-1,-3.3600897E-1,-2.619626E-1,-3.0482516E-1,-1.5389097E-1,-2.2950968E-1,-3.2502058E-1,-3.4731683E-1,-2.3442754E-1,-3.0531082E-1,-6.1927773E-3,-8.571261E-2,1.0150325E-1,1.82042E-2,-2.2213928E-1,-8.529156E-2,-2.7446532E-1,-1.4810103E-1,-6.4334353E-3,7.041138E-2,-2.494789E-1,-5.313847E-2,8.22227E-2,-3.261277E-2,9.0948015E-2,2.3544748E-1,-2.9869264E-1,-2.3664024E-1,-3.2761887E-1,-3.5387018E-1,-2.3147601E-1,-1.5405953E-1,-3.4068036E-1,-2.627192E-1,-2.5661013E-1,-3.534447E-1,-8.6494885E-2,-2.2347583E-1,-2.2613399E-2,1.3754666E-1,-3.961008E-1,-1.1060919E-1],"split_indices":[4,0,0,4,4,4,4,3,0,0,0,0,3,6,4,3,0,3,6,6,6,6,6,3,0,0,4,0,0,6,0,3,6,6,6,6,3,0,0,2,3,2,0,0,0,0,0,0,1,6,6,4,6,0,4,6,0,3,6,0,0,4,6,0,0,0,0,0,0,0,0,0,0,0,0,0,0,0,0,0,0,0,0,0,0,0,0,0,0,0,0,0,0,0,0,0,0,0,0,0,0,0,0,0,0,0,0,0,0,0,0,0,0,0,0,0,0,0,0,0,0,0,0,0,0,0,0],"split_type":[0,0,0,0,0,0,0,0,0,0,0,0,0,0,0,0,0,0,0,0,0,0,0,0,0,0,0,0,0,0,0,0,0,0,0,0,0,0,0,0,0,0,0,0,0,0,0,0,0,0,0,0,0,0,0,0,0,0,0,0,0,0,0,0,0,0,0,0,0,0,0,0,0,0,0,0,0,0,0,0,0,0,0,0,0,0,0,0,0,0,0,0,0,0,0,0,0,0,0,0,0,0,0,0,0,0,0,0,0,0,0,0,0,0,0,0,0,0,0,0,0,0,0,0,0,0,0],"sum_hessian":[1.2212991E6,8.893532E5,3.319459E5,3.0123897E5,5.8811425E5,1.6720188E5,1.6474403E5,2.3688164E5,6.435732E4,4.4535884E5,1.427554E5,1.0104252E5,6.615935E4,1.0419518E5,6.054885E4,1.8236089E5,5.4520758E4,1.0020262E4,5.433706E4,2.2544936E5,2.1990947E5,6.2611844E4,8.0143555E4,1.5892852E4,8.514967E4,4.3109613E4,2.3049738E4,2.720358E4,7.699159E4,3.8897742E4,2.165111E4,5.332718E4,1.2903371E5,1.0478872E4,4.4041887E4,6.9716035E3,3.0486575E3,1.4720763E4,3.9616297E4,1.3483892E5,9.061044E4,1.1552988E5,1.04379586E5,2.8208828E4,3.4403016E4,2.9072346E4,5.107121E4,5.061144E3,1.0831708E4,3.6458613E4,4.8691062E4,1.1330302E4,3.1779309E4,1.767807E4,5.3716675E3,7.2994272E3,1.9904152E4,4.625846E4,3.0733135E4,3.6424858E3,3.5255258E4,1.72312E4,4.41991E3,1.5795225E4,3.7531957E4,5.1045145E4,7.798856E4,6.5789487E3,3.8999233E3,2.1926115E4,2.211577E4,2.4031838E3,4.56842E3,2.4943232E3,5.543342E2,5.281521E3,9.439241E3,1.8661273E4,2.0955023E4,1.0959876E5,2.5240166E4,3.5049504E4,5.5560938E4,9.692869E4,1.8601201E4,2.9112805E4,7.526678E4,1.33698E4,1.4839028E4,1.3095185E4,2.130783E4,1.6566387E4,1.2505958E4,1.599984E4,3.507137E4,2.8465894E3,2.2145544E3,2.7078179E3,8.1238896E3,8.454335E3,2.800428E4,1.7249621E4,3.144144E4,8.534522E3,2.7957795E3,4.4658555E3,2.7313453E4,7.065661E3,1.0612409E4,4.527759E3,8.4390894E2,5.45192E3,1.8475076E3,1.4335537E4,5.5686147E3,2.0222436E4,2.6036027E4,1.0039921E4,2.0693213E4,1.4935514E3,2.1489343E3,2.4343197E4,1.091206E4,1.4201279E4,3.0299202E3,5.4721716E2,3.8726934E3],"tree_param":{"num_deleted":"0","num_feature":"7","num_nodes":"127","size_leaf_vector":"0"}},{"base_weights":[-6.8377566E-1,-8.1466633E-1,-3.6714378E-1,-6.594898E-1,-9.422007E-1,-2.2812611E-1,-5.391871E-1,-7.33751E-1,-4.1313517E-1,-9.858952E-1,-8.124789E-1,-3.631862E-1,-7.291189E-2,-7.3873746E-1,-3.0148175E-1,-8.636293E-1,-6.4283764E-1,-2.880692E-1,-5.3026885E-1,-1.0477215E0,-9.385335E-1,-7.186677E-1,-9.0945375E-1,-5.1886106E-1,-2.4581344E-1,-1.3429163E-1,1.7805487E-1,-9.6288687E-1,-6.5243995E-1,-8.742169E-1,-2.3540369E-1,-9.9693257E-1,-8.264756E-1,-4.9148282E-1,-7.0333797E-1,-4.2640597E-1,-1.7843015E-1,-7.158766E-1,-3.7687021E-1,-9.9375427E-1,-1.0802642E0,-8.1416E-1,-1.008979E0,-8.766428E-1,-5.7363844E-1,-1.0258598E0,-8.183148E-1,-2.548326E-1,-6.446474E-1,-3.017444E-1,-4.609978E-3,2.2056662E-2,-2.6665398E-1,1.352093E-1,5.61867E-1,-8.7469256E-1,-1.0334405E0,-5.407131E-1,-8.885767E-1,-5.0695914E-1,-1.0257304E0,-1.3662824E-1,-5.2361304E-1,-3.1769156E-1,-2.902648E-1,-2.1245192E-1,-2.5960186E-1,-1.599598E-1,-5.67529E-2,-2.503687E-1,-1.6827247E-1,-1.9214796E-1,-1.1292893E-1,-6.785278E-2,1.1713664E-2,-1.8949883E-1,-2.423829E-1,-1.7442277E-1,-8.561466E-2,-3.038717E-1,-2.5394154E-1,-3.2808173E-1,-3.0281556E-1,-2.93066E-1,-2.2273666E-1,-3.2341248E-1,-2.8905055E-1,-2.3797016E-1,-2.89537E-1,-2.2684775E-1,-1.4536512E-1,-2.9360384E-1,-3.2456598E-1,-2.0857109E-1,-2.8836176E-1,4.0805288E-2,-9.273543E-2,-2.3680924E-1,-1.7966826E-1,-3.9182547E-2,-1.2708189E-1,-2.6016694E-2,7.4662276E-2,-5.408121E-3,8.066672E-2,-2.0361091E-1,-4.1284237E-2,1.0992106E-1,2.0245135E-2,1.5177998E-1,3.2075077E-1,-2.7905852E-1,-2.2750965E-1,-2.9887915E-1,-3.253129E-1,-1.22529775E-1,-1.9242084E-1,-3.1413755E-1,-2.3666564E-1,-2.3454566E-1,-5.6959406E-2,-2.9694226E-1,-4.423598E-1,-5.81637E-2,7.5975746E-2,-3.1913453E-1,-1.197102E-1],"categories":[],"categories_nodes":[],"categories_segments":[],"categories_sizes":[],"default_left":[0,0,0,0,0,0,0,0,0,0,0,0,0,0,0,0,0,0,0,0,0,0,0,0,0,0,0,0,0,0,0,0,0,0,0,0,0,0,0,0,0,0,0,0,0,0,0,0,0,0,0,0,0,0,0,0,0,0,0,0,0,0,0,0,0,0,0,0,0,0,0,0,0,0,0,0,0,0,0,0,0,0,0,0,0,0,0,0,0,0,0,0,0,0,0,0,0,0,0,0,0,0,0,0,0,0,0,0,0,0,0,0,0,0,0,0,0,0,0,0,0,0,0,0,0,0,0],"id":4,"left_children":[1,3,5,7,9,11,13,15,17,19,21,23,25,27,29,31,33,35,37,39,41,43,45,47,49,51,53,55,57,59,61,63,65,67,69,71,73,75,77,79,81,83,85,87,89,91,93,95,97,99,101,103,105,107,109,111,113,115,117,119,121,123,125,-1,-1,-1,-1,-1,-1,-1,-1,-1,-1,-1,-1,-1,-1,-1,-1,-1,-1,-1,-1,-1,-1,-1,-1,-1,-1,-1,-1,-1,-1,-1,-1,-1,-1,-1,-1,-1,-1,-1,-1,-1,-1,-1,-1,-1,-1,-1,-1,-1,-1,-1,-1,-1,-1,-1,-1,-1,-1,-1,-1,-1,-1,-1,-1],"loss_changes":[4.3856094E4,1.48164375E4,7.402301E3,6.1787344E3,2.3285312E3,3.588543E3,6.560926E3,3.0637969E3,1.1459121E3,8.99125E2,9.413828E2,1.6723887E3,1.2269812E3,1.4539023E3,2.3888608E3,5.2840625E2,1.3975977E3,5.738081E2,1.1498887E3,2.3309375E2,1.5243125E3,1.205498E3,5.393008E2,1.3065713E3,7.040686E2,1.3244363E3,2.573267E2,1.2914844E2,1.4319883E3,3.6280713E2,1.6111843E3,4.142578E1,3.836289E2,5.4974805E2,2.0379805E3,1.7874219E2,2.1920392E2,1.412041E2,4.1374878E2,1.4064844E2,7.753906E1,7.3377344E2,3.4797656E2,1.851582E2,4.4592578E2,5.8027344E1,5.016172E2,2.6946198E2,1.7597949E2,8.834717E2,2.0451706E2,2.903116E2,1.8426956E3,2.204697E2,4.4052185E1,5.9309082E1,2.0896484E1,4.9067773E2,2.7478223E2,1.6623145E2,7.304883E1,9.409602E2,9.7170996E2,0E0,0E0,0E0,0E0,0E0,0E0,0E0,0E0,0E0,0E0,0E0,0E0,0E0,0E0,0E0,0E0,0E0,0E0,0E0,0E0,0E0,0E0,0E0,0E0,0E0,0E0,0E0,0E0,0E0,0E0,0E0,0E0,0E0,0E0,0E0,0E0,0E0,0E0,0E0,0E0,0E0,0E0,0E0,0E0,0E0,0E0,0E0,0E0,0E0,0E0,0E0,0E0,0E0,0E0,0E0,0E0,0E0,0E0,0E0,0E0,0E0,0E0,0E0,0E0],"parents":[2147483647,0,0,1,1,2,2,3,3,4,4,5,5,6,6,7,7,8,8,9,9,10,10,11,11,12,12,13,13,14,14,15,15,16,16,17,17,18,18,19,19,20,20,21,21,22,22,23,23,24,24,25,25,26,26,27,27,28,28,29,29,30,30,31,31,32,32,33,33,34,34,35,35,36,36,37,37,38,38,39,39,40,40,41,41,42,42,43,43,44,44,45,45,46,46,47,47,48,48,49,49,50,50,51,51,52,52,53,53,54,54,55,55,56,56,57,57,58,58,59,59,60,60,61,61,62,62],"right_children":[2,4,6,8,10,12,14,16,18,20,22,24,26,28,30,32,34,36,38,40,42,44,46,48,50,52,54,56,58,60,62,64,66,68,70,72,74,76,78,80,82,84,86,88,90,92,94,96,98,100,102,104,106,108,110,112,114,116,118,120,122,124,126,-1,-1,-1,-1,-1,-1,-1,-1,-1,-1,-1,-1,-1,-1,-1,-1,-1,-1,-1,-1,-1,-1,-1,-1,-1,-1,-1,-1,-1,-1,-1,-1,-1,-1,-1,-1,-1,-1,-1,-1,-1,-1,-1,-1,-1,-1,-1,-1,-1,-1,-1,-1,-1,-1,-1,-1,-1,-1,-1,-1,-1,-1,-1,-1],"split_conditions":[3E0,1.3E1,2.7E1,2E0,2E0,6.4295125E-1,7E0,5.161572E-1,7E0,1.2E1,2.8E1,4E0,8E0,2.6E1,2.7E1,2.8395063E-1,5E0,5.947268E-1,7E0,1.8E1,2.7E1,1.3E1,2.7E1,9E0,8E0,1.1E1,1.6E1,3.3E1,5.9E1,2.9E1,6.6E1,1.5756951E-1,5E0,7.4201864E-1,5E0,4.0184048E-1,7.6223654E-1,9E0,5.195583E-1,3.5633E4,1.9163E4,4.368887E-1,2.6E1,1.7E1,5.025533E-1,3.9E1,5.3E1,4E0,9E0,1.3E1,1.2E1,8.0570245E-1,1.1E1,1.4E1,2.2E1,2.3E1,4.5E1,3.9E1,5.7E1,2.5E1,1.6E1,2.4E1,6.4E1,-3.1769156E-1,-2.902648E-1,-2.1245192E-1,-2.5960186E-1,-1.599598E-1,-5.67529E-2,-2.503687E-1,-1.6827247E-1,-1.9214796E-1,-1.1292893E-1,-6.785278E-2,1.1713664E-2,-1.8949883E-1,-2.423829E-1,-1.7442277E-1,-8.561466E-2,-3.038717E-1,-2.5394154E-1,-3.2808173E-1,-3.0281556E-1,-2.93066E-1,-2.2273666E-1,-3.2341248E-1,-2.8905055E-1,-2.3797016E-1,-2.89537E-1,-2.2684775E-1,-1.4536512E-1,-2.9360384E-1,-3.2456598E-1,-2.0857109E-1,-2.8836176E-1,4.0805288E-2,-9.273543E-2,-2.3680924E-1,-1.7966826E-1,-3.9182547E-2,-1.2708189E-1,-2.6016694E-2,7.4662276E-2,-5.408121E-3,8.066672E-2,-2.0361091E-1,-4.1284237E-2,1.0992106E-1,2.0245135E-2,1.5177998E-1,3.2075077E-1,-2.7905852E-1,-2.2750965E-1,-2.9887915E-1,-3.253129E-1,-1.22529775E-1,-1.9242084E-1,-3.1413755E-1,-2.3666564E-1,-2.3454566E-1,-5.6959406E-2,-2.9694226E-1,-4.423598E-1,-5.81637E-2,7.5975746E-2,-3.1913453E-1,-1.197102E-1],"split_indices":[4,0,0,4,4,3,4,3,0,6,0,4,4,6,6,3,0,3,6,0,0,6,6,0,4,0,4,0,0,0,0,3,0,3,6,3,3,0,3,2,2,3,6,0,3,0,0,0,6,0,4,3,6,0,4,6,0,0,6,6,4,4,6,0,0,0,0,0,0,0,0,0,0,0,0,0,0,0,0,0,0,0,0,0,0,0,0,0,0,0,0,0,0,0,0,0,0,0,0,0,0,0,0,0,0,0,0,0,0,0,0,0,0,0,0,0,0,0,0,0,0,0,0,0,0,0,0],"split_type":[0,0,0,0,0,0,0,0,0,0,0,0,0,0,0,0,0,0,0,0,0,0,0,0,0,0,0,0,0,0,0,0,0,0,0,0,0,0,0,0,0,0,0,0,0,0,0,0,0,0,0,0,0,0,0,0,0,0,0,0,0,0,0,0,0,0,0,0,0,0,0,0,0,0,0,0,0,0,0,0,0,0,0,0,0,0,0,0,0,0,0,0,0,0,0,0,0,0,0,0,0,0,0,0,0,0,0,0,0,0,0,0,0,0,0,0,0,0,0,0,0,0,0,0,0,0,0],"sum_hessian":[1.0582044E6,7.487015E5,3.0950294E5,3.3775134E5,4.1095016E5,1.7118286E5,1.3832008E5,2.595197E5,7.823163E4,3.0740094E5,1.03549195E5,9.153344E4,7.964943E4,7.5193805E4,6.3126273E4,1.0685656E5,1.5266314E5,3.7836402E4,4.0395227E4,1.3333005E5,1.740709E5,5.263742E4,5.0911773E4,3.9345273E4,5.2188164E4,6.3997754E4,1.5651673E4,2.0899418E4,5.429439E4,6.528439E3,5.6597836E4,2.328536E4,8.35712E4,4.3599234E4,1.09063914E5,1.6727559E4,2.1108844E4,1.8276975E4,2.2118254E4,5.0166973E4,8.316307E4,6.2947625E4,1.1112328E5,2.5191828E4,2.7445594E4,2.2352316E4,2.8559457E4,1.2697003E4,2.664827E4,4.2364348E4,9.823816E3,2.9340807E4,3.465695E4,1.4081127E4,1.5705461E3,9.29445E3,1.1604967E4,3.6858336E4,1.7436053E4,1.9079794E3,4.6204595E3,4.215269E4,1.44451455E4,7.47267E3,1.5812688E4,2.0670096E4,6.290111E4,3.8311688E4,5.287547E3,5.6762355E4,5.230156E4,3.1635955E3,1.3563963E4,1.7308748E4,3.8000952E3,9.549674E3,8.727301E3,6.8340576E3,1.5284196E4,4.438914E4,5.7778315E3,6.997683E4,1.3186238E4,1.9249682E4,4.369794E4,4.411167E4,6.701161E4,1.2972674E4,1.2219155E4,8.999738E3,1.8445855E4,1.2144148E4,1.0208167E4,1.5346638E4,1.3212819E4,1.54825E3,1.1148753E4,6.397341E3,2.025093E4,1.762079E4,2.4743559E4,7.4206636E3,2.4031523E3,2.5242535E4,4.0982715E3,8.264037E3,2.6392912E4,3.1893281E3,1.0891799E4,1.4163773E3,1.5416882E2,6.2875283E3,3.0069219E3,6.720445E3,4.8845225E3,1.5932359E4,2.0925977E4,6.7273716E3,1.0708682E4,1.02126996E3,8.867095E2,4.2810063E3,3.3945306E2,3.6755895E4,5.3967954E3,2.7057231E3,1.1739422E4],"tree_param":{"num_deleted":"0","num_feature":"7","num_nodes":"127","size_leaf_vector":"0"}},{"base_weights":[-5.6668794E-1,-7.590401E-1,-3.6575785E-1,-5.4045004E-1,-8.479743E-1,-4.938166E-1,-2.0863165E-1,-6.6296154E-1,-4.2135277E-1,-7.5390965E-1,-9.2063427E-1,-3.0200663E-1,-7.02786E-1,-8.87183E-2,-3.618841E-1,-7.853076E-1,-5.9755796E-1,-4.6088207E-1,-1.4289457E-1,-8.6734515E-1,-5.8781457E-1,-9.9669224E-1,-8.478555E-1,-1.8212232E-1,-4.1728604E-1,-8.6762834E-1,-6.3954973E-1,-2.4697882E-1,-1.9080926E-2,-8.521622E-1,-2.7442238E-1,-8.9151144E-1,-7.3588544E-1,-7.105533E-1,-5.1013607E-1,-5.7471013E-1,-3.7726617E-1,-3.0236164E-1,-2.0091323E-2,-8.9535534E-1,-7.0673186E-1,-7.6312745E-1,-4.7918105E-1,-1.014228E0,-9.058171E-1,-6.8335855E-1,-9.2719924E-1,1.7840505E-2,-2.3347919E-1,-6.179841E-1,-2.8947005E-1,-7.5848734E-1,-9.3360746E-1,-4.4402924E-1,-7.496426E-1,1.8662876E-2,-2.7754313E-1,-5.5498246E-2,2.2122271E-1,-6.995211E-1,-9.231822E-1,-9.852094E-2,-4.1299406E-1,-2.5071055E-1,-2.8304788E-1,-2.4582836E-1,-2.0060109E-1,-1.7547652E-1,-2.3152813E-1,-7.832854E-2,-1.6521353E-1,-1.3074924E-1,-1.9545639E-1,-4.550546E-2,-1.2608193E-1,-1.2149668E-1,-1.8788155E-2,-2.6830029E-2,9.302082E-2,-2.9103085E-1,-2.613073E-1,-2.2386384E-1,-1.6711465E-1,-2.6131073E-1,-2.0250237E-1,-7.70597E-2,-1.6622221E-1,-2.96115E-1,-3.168549E-1,-2.5889173E-1,-2.9045695E-1,-2.4063326E-1,-1.5776816E-1,-3.0331677E-1,-2.6255482E-1,-5.9542343E-2,2.6745271E-2,-1.4749697E-1,-4.2857442E-2,-1.5985085E-1,-2.096724E-1,-1.2586871E-1,-4.892661E-2,-2.491256E-1,-2.1200356E-1,-2.9028124E-1,-2.6063198E-1,-1.7756487E-1,-9.943796E-2,-2.715299E-1,-2.055159E-1,5.289194E-2,-1.804811E-2,-2.0955923E-1,-7.390386E-2,2.2602467E-2,-5.1178847E-2,5.325271E-2,1.7248708E-1,-2.5386778E-1,-1.8444109E-1,-2.732269E-1,-4.3264955E-1,-5.865129E-2,3.6615223E-2,-2.6927167E-1,-8.8630795E-2],"categories":[],"categories_nodes":[],"categories_segments":[],"categories_sizes":[],"default_left":[0,0,0,0,0,0,0,0,0,0,0,0,0,0,0,0,0,0,0,0,0,0,0,0,0,0,0,0,0,0,0,0,0,0,0,0,0,0,0,0,0,0,0,0,0,0,0,0,0,0,0,0,0,0,0,0,0,0,0,0,0,0,0,0,0,0,0,0,0,0,0,0,0,0,0,0,0,0,0,0,0,0,0,0,0,0,0,0,0,0,0,0,0,0,0,0,0,0,0,0,0,0,0,0,0,0,0,0,0,0,0,0,0,0,0,0,0,0,0,0,0,0,0,0,0,0,0],"id":5,"left_children":[1,3,5,7,9,11,13,15,17,19,21,23,25,27,29,31,33,35,37,39,41,43,45,47,49,51,53,55,57,59,61,63,65,67,69,71,73,75,77,79,81,83,85,87,89,91,93,95,97,99,101,103,105,107,109,111,113,115,117,119,121,123,125,-1,-1,-1,-1,-1,-1,-1,-1,-1,-1,-1,-1,-1,-1,-1,-1,-1,-1,-1,-1,-1,-1,-1,-1,-1,-1,-1,-1,-1,-1,-1,-1,-1,-1,-1,-1,-1,-1,-1,-1,-1,-1,-1,-1,-1,-1,-1,-1,-1,-1,-1,-1,-1,-1,-1,-1,-1,-1,-1,-1,-1,-1,-1,-1],"loss_changes":[3.5748156E4,9.186125E3,9.102539E3,1.9937539E3,2.2950625E3,9.990211E3,3.7330771E3,5.3857227E2,7.6273926E2,2.757664E3,1.0481406E3,1.7960117E3,1.2428984E3,1.2560166E3,3.8235732E3,1.225E2,4.3331152E2,5.7737305E2,1.6872586E2,3.906914E2,1.131084E3,1.4674219E2,1.2633906E3,6.542705E2,1.6993506E3,2.3743164E2,1.8555391E3,2.827495E2,6.926221E2,1.456914E2,1.8445425E3,2.0814453E1,8.939746E1,1.467832E2,2.5001025E2,2.738457E2,3.3937695E2,9.21991E1,1.1149318E2,1.3384766E2,7.5944824E1,2.1552441E2,6.1062695E2,8.7515625E1,3.924121E1,5.889219E2,2.8408594E2,2.0085721E2,1.1859099E3,1.7723828E2,6.654258E2,4.58667E1,4.4578125E1,5.167798E2,5.5321094E2,4.4673553E1,4.1000146E2,1.0350378E3,1.609584E2,5.2804688E1,5.8078125E1,7.133847E2,2.411045E3,0E0,0E0,0E0,0E0,0E0,0E0,0E0,0E0,0E0,0E0,0E0,0E0,0E0,0E0,0E0,0E0,0E0,0E0,0E0,0E0,0E0,0E0,0E0,0E0,0E0,0E0,0E0,0E0,0E0,0E0,0E0,0E0,0E0,0E0,0E0,0E0,0E0,0E0,0E0,0E0,0E0,0E0,0E0,0E0,0E0,0E0,0E0,0E0,0E0,0E0,0E0,0E0,0E0,0E0,0E0,0E0,0E0,0E0,0E0,0E0,0E0,0E0,0E0,0E0],"parents":[2147483647,0,0,1,1,2,2,3,3,4,4,5,5,6,6,7,7,8,8,9,9,10,10,11,11,12,12,13,13,14,14,15,15,16,16,17,17,18,18,19,19,20,20,21,21,22,22,23,23,24,24,25,25,26,26,27,27,28,28,29,29,30,30,31,31,32,32,33,33,34,34,35,35,36,36,37,37,38,38,39,39,40,40,41,41,42,42,43,43,44,44,45,45,46,46,47,47,48,48,49,49,50,50,51,51,52,52,53,53,54,54,55,55,56,56,57,57,58,58,59,59,60,60,61,61,62,62],"right_children":[2,4,6,8,10,12,14,16,18,20,22,24,26,28,30,32,34,36,38,40,42,44,46,48,50,52,54,56,58,60,62,64,66,68,70,72,74,76,78,80,82,84,86,88,90,92,94,96,98,100,102,104,106,108,110,112,114,116,118,120,122,124,126,-1,-1,-1,-1,-1,-1,-1,-1,-1,-1,-1,-1,-1,-1,-1,-1,-1,-1,-1,-1,-1,-1,-1,-1,-1,-1,-1,-1,-1,-1,-1,-1,-1,-1,-1,-1,-1,-1,-1,-1,-1,-1,-1,-1,-1,-1,-1,-1,-1,-1,-1,-1,-1,-1,-1,-1,-1,-1,-1,-1,-1,-1,-1,-1],"split_conditions":[2E0,8E0,4E0,5.6095517E-1,1.8E1,1.6E1,3E1,3.962264E-1,7.519956E-1,8E0,1.7E1,8E0,1.5E1,5.847953E-1,2.9E1,2.49668E-1,3E0,3E0,3E0,2.7992E4,4.9543676E-1,1.9257E4,3.2E1,4E0,8E0,2E1,2.9E1,8E0,1.1E1,3.3E1,4.8E1,2.93E2,3E0,4E0,4E0,4E0,4E0,2.41921E5,8.32555E-1,3.8586158E-1,1.09778E5,3.5826772E-1,1.1E1,3.1E1,2.9E1,5.5537415E-1,3.1E1,3E0,4E0,1E1,5.9359676E-1,1E1,1.0557E4,5.568757E-1,2.8E1,6E0,8E0,1.4E1,1.9E1,2.3E1,1.7E1,6.95103E-1,4.7E1,-2.5071055E-1,-2.8304788E-1,-2.4582836E-1,-2.0060109E-1,-1.7547652E-1,-2.3152813E-1,-7.832854E-2,-1.6521353E-1,-1.3074924E-1,-1.9545639E-1,-4.550546E-2,-1.2608193E-1,-1.2149668E-1,-1.8788155E-2,-2.6830029E-2,9.302082E-2,-2.9103085E-1,-2.613073E-1,-2.2386384E-1,-1.6711465E-1,-2.6131073E-1,-2.0250237E-1,-7.70597E-2,-1.6622221E-1,-2.96115E-1,-3.168549E-1,-2.5889173E-1,-2.9045695E-1,-2.4063326E-1,-1.5776816E-1,-3.0331677E-1,-2.6255482E-1,-5.9542343E-2,2.6745271E-2,-1.4749697E-1,-4.2857442E-2,-1.5985085E-1,-2.096724E-1,-1.2586871E-1,-4.892661E-2,-2.491256E-1,-2.1200356E-1,-2.9028124E-1,-2.6063198E-1,-1.7756487E-1,-9.943796E-2,-2.715299E-1,-2.055159E-1,5.289194E-2,-1.804811E-2,-2.0955923E-1,-7.390386E-2,2.2602467E-2,-5.1178847E-2,5.325271E-2,1.7248708E-1,-2.5386778E-1,-1.8444109E-1,-2.732269E-1,-4.3264955E-1,-5.865129E-2,3.6615223E-2,-2.6927167E-1,-8.8630795E-2],"split_indices":[4,0,4,3,0,0,0,3,3,6,6,0,6,3,6,3,6,6,6,2,3,2,0,0,6,0,0,0,4,0,0,2,6,0,0,0,0,2,3,3,2,3,0,0,0,3,6,6,6,0,3,6,2,3,6,0,6,0,4,6,4,3,6,0,0,0,0,0,0,0,0,0,0,0,0,0,0,0,0,0,0,0,0,0,0,0,0,0,0,0,0,0,0,0,0,0,0,0,0,0,0,0,0,0,0,0,0,0,0,0,0,0,0,0,0,0,0,0,0,0,0,0,0,0,0,0,0],"split_type":[0,0,0,0,0,0,0,0,0,0,0,0,0,0,0,0,0,0,0,0,0,0,0,0,0,0,0,0,0,0,0,0,0,0,0,0,0,0,0,0,0,0,0,0,0,0,0,0,0,0,0,0,0,0,0,0,0,0,0,0,0,0,0,0,0,0,0,0,0,0,0,0,0,0,0,0,0,0,0,0,0,0,0,0,0,0,0,0,0,0,0,0,0,0,0,0,0,0,0,0,0,0,0,0,0,0,0,0,0,0,0,0,0,0,0,0,0,0,0,0,0,0,0,0,0,0,0],"sum_hessian":[9.2494194E5,4.725566E5,4.5238534E5,1.3666264E5,3.3589397E5,2.4924611E5,2.0313922E5,6.736346E4,6.929918E4,1.4639031E5,1.8950366E5,1.2996008E5,1.1928603E5,1.13966766E5,8.917245E4,2.3462566E4,4.3900895E4,6.0683965E4,8.615214E3,8.698157E4,5.9408742E4,9.265803E4,9.6845625E4,6.3708887E4,6.6251195E4,3.3069305E4,8.621673E4,3.4823355E4,7.9143414E4,1.3498134E4,7.567432E4,7.4456016E3,1.6016964E4,1.9146443E4,2.4754451E4,2.5696672E4,3.4987293E4,3.7474595E3,4.8677544E3,7.4061086E4,1.292048E4,2.2726568E4,3.6682176E4,7.766181E4,1.499622E4,3.15159E4,6.5329727E4,1.3018963E4,5.068992E4,2.577507E4,4.0476125E4,1.2464071E4,2.0605234E4,3.1060164E4,5.5156562E4,3.5933208E3,3.1230035E4,6.872856E4,1.0414847E4,4.2895605E3,9.208573E3,3.3346426E4,4.2327895E4,3.5988254E3,3.8467764E3,7.1361636E3,8.880801E3,6.275707E3,1.2870736E4,3.4691704E3,2.128528E4,9.153408E3,1.6543264E4,5.602965E3,2.9384326E4,2.6236282E3,1.1238313E3,4.0234558E3,8.4429834E2,1.8177904E4,5.5883184E4,1.0220661E4,2.6998193E3,1.0212184E4,1.2514384E4,9.244592E3,2.7437584E4,4.7145777E4,3.0516035E4,8.89853E3,6.0976895E3,1.7964127E4,1.3551773E4,2.5003236E4,4.032649E4,3.227324E3,9.79164E3,1.3168562E4,3.752136E4,1.2563429E4,1.3211641E4,1.9944092E4,2.0532033E4,5.2123022E3,7.2517686E3,1.350815E4,7.097084E3,1.3424101E4,1.7636062E4,1.618612E4,3.897044E4,1.197376E3,2.3959448E3,2.1531348E3,2.90769E4,3.2164867E4,3.65637E4,9.270696E3,1.1441503E3,1.5670021E3,2.7225583E3,8.995938E3,2.1263458E2,2.3162293E4,1.0184135E4,8.262595E3,3.40653E4],"tree_param":{"num_deleted":"0","num_feature":"7","num_nodes":"127","size_leaf_vector":"0"}},{"base_weights":[-4.6264103E-1,-6.5482354E-1,-2.8146353E-1,-5.013642E-1,-8.039652E-1,-4.116122E-1,-1.5300807E-1,-5.8465296E-1,-3.4402382E-1,-8.6534125E-1,-7.029555E-1,-2.8267583E-1,-5.3759944E-1,-2.1161999E-1,3.811158E-2,-7.358228E-1,-5.301572E-1,-3.723776E-1,-2.6696837E-2,-8.199227E-1,-9.4146544E-1,-8.31866E-1,-5.907895E-1,-3.4911093E-1,-1.06583446E-1,-6.699303E-1,-3.1607178E-1,-1.1886056E-1,-3.05251E-1,-2.2693321E-2,1.9859803E-1,-8.442305E-1,-6.8301255E-1,-4.250364E-1,-6.005775E-1,-2.8915572E-1,-4.7507563E-1,-4.1916937E-2,8.2315904E-1,-9.000216E-1,-7.0745087E-1,-9.935206E-1,-8.714108E-1,-7.5801307E-1,-9.342696E-1,-4.1625562E-1,-7.426219E-1,-1.7179626E-1,-4.047279E-1,-1.7596884E-1,2.173628E-2,-8.254059E-1,-6.083099E-1,-7.4222934E-1,-2.7839544E-1,-1.5516068E-1,1.1854785E-1,-7.30222E-1,-2.0574623E-1,-3.1586505E-2,6.095396E-1,1.8453123E-1,8.396386E-1,-2.7311656E-1,-2.3844756E-1,-1.7673683E-1,-2.207825E-1,-1.6093959E-1,-9.495983E-2,-2.1864708E-1,-1.2693545E-1,-1.0733916E-1,-3.892941E-2,-1.9366102E-1,-6.584717E-2,6.5538823E-3,-6.288133E-2,1.693775E-1,4.1207898E-1,-2.512476E-1,-2.795425E-1,-2.5225222E-1,-1.8768053E-1,-2.866952E-1,-3.0631864E-1,-2.1860804E-1,-2.818219E-1,-2.4095315E-1,-1.9388561E-1,-2.898502E-1,-2.4776946E-1,-1.1150911E-2,-1.437542E-1,-2.7307722E-1,-1.8790917E-1,-1.5470523E-3,-6.462281E-2,-1.7580034E-1,-1.0463012E-1,1.6080925E-2,-6.5708585E-2,5.7437167E-2,-7.90181E-3,-2.1216138E-1,-2.619611E-1,-1.38844E-1,-2.230931E-1,-1.70016E-1,-2.450116E-1,-5.8183923E-2,-1.5346166E-1,-2.896725E-2,-1.6756761E-1,2.4607316E-2,1.4205615E-1,-1.7597759E-1,-2.4338965E-1,-4.1011084E-2,-1.3852373E-1,-3.5038104E-3,-1.3095933E-1,2.340438E-1,4.134556E-2,5.917136E-2,-4.714491E-2,2.9894853E-1,1.2485141E-1],"categories":[],"categories_nodes":[],"categories_segments":[],"categories_sizes":[],"default_left":[0,0,0,0,0,0,0,0,0,0,0,0,0,0,0,0,0,0,0,0,0,0,0,0,0,0,0,0,0,0,0,0,0,0,0,0,0,0,0,0,0,0,0,0,0,0,0,0,0,0,0,0,0,0,0,0,0,0,0,0,0,0,0,0,0,0,0,0,0,0,0,0,0,0,0,0,0,0,0,0,0,0,0,0,0,0,0,0,0,0,0,0,0,0,0,0,0,0,0,0,0,0,0,0,0,0,0,0,0,0,0,0,0,0,0,0,0,0,0,0,0,0,0,0,0,0,0],"id":6,"left_children":[1,3,5,7,9,11,13,15,17,19,21,23,25,27,29,31,33,35,37,39,41,43,45,47,49,51,53,55,57,59,61,63,65,67,69,71,73,75,77,79,81,83,85,87,89,91,93,95,97,99,101,103,105,107,109,111,113,115,117,119,121,123,125,-1,-1,-1,-1,-1,-1,-1,-1,-1,-1,-1,-1,-1,-1,-1,-1,-1,-1,-1,-1,-1,-1,-1,-1,-1,-1,-1,-1,-1,-1,-1,-1,-1,-1,-1,-1,-1,-1,-1,-1,-1,-1,-1,-1,-1,-1,-1,-1,-1,-1,-1,-1,-1,-1,-1,-1,-1,-1,-1,-1,-1,-1,-1,-1],"loss_changes":[2.8562406E4,9.110219E3,7.059211E3,2.5708906E3,1.2508984E3,3.4069492E3,2.3804976E3,1.0564375E3,6.1101855E2,4.33375E2,1.1028398E3,1.2126445E3,3.1095938E3,1.4124531E3,4.8671625E2,1.9401367E2,6.977871E2,5.326748E2,7.2099846E1,7.079297E2,1.7021875E2,2.677754E2,1.0810518E3,7.421592E2,2.5283392E2,6.3574023E2,6.3678735E2,7.0408887E2,3.422334E3,2.03402E2,1.2342645E2,3.565381E1,1.1317285E2,4.5723145E2,1.2847734E3,3.7673877E2,1.2155498E3,5.85376E1,1.318248E1,9.051953E1,3.567041E2,2.7091797E1,1.9347754E2,1.0358594E2,5.0606445E1,4.5287817E2,4.2469922E2,1.3061633E2,5.8098047E2,1.8220642E2,8.132867E1,1.0586328E2,9.362285E2,4.165222E1,7.1759766E2,1.675188E3,1.4044336E2,1.7833252E2,1.159082E3,2.8755536E2,4.027716E1,5.8259857E1,1.911348E1,0E0,0E0,0E0,0E0,0E0,0E0,0E0,0E0,0E0,0E0,0E0,0E0,0E0,0E0,0E0,0E0,0E0,0E0,0E0,0E0,0E0,0E0,0E0,0E0,0E0,0E0,0E0,0E0,0E0,0E0,0E0,0E0,0E0,0E0,0E0,0E0,0E0,0E0,0E0,0E0,0E0,0E0,0E0,0E0,0E0,0E0,0E0,0E0,0E0,0E0,0E0,0E0,0E0,0E0,0E0,0E0,0E0,0E0,0E0,0E0,0E0,0E0,0E0,0E0],"parents":[2147483647,0,0,1,1,2,2,3,3,4,4,5,5,6,6,7,7,8,8,9,9,10,10,11,11,12,12,13,13,14,14,15,15,16,16,17,17,18,18,19,19,20,20,21,21,22,22,23,23,24,24,25,25,26,26,27,27,28,28,29,29,30,30,31,31,32,32,33,33,34,34,35,35,36,36,37,37,38,38,39,39,40,40,41,41,42,42,43,43,44,44,45,45,46,46,47,47,48,48,49,49,50,50,51,51,52,52,53,53,54,54,55,55,56,56,57,57,58,58,59,59,60,60,61,61,62,62],"right_children":[2,4,6,8,10,12,14,16,18,20,22,24,26,28,30,32,34,36,38,40,42,44,46,48,50,52,54,56,58,60,62,64,66,68,70,72,74,76,78,80,82,84,86,88,90,92,94,96,98,100,102,104,106,108,110,112,114,116,118,120,122,124,126,-1,-1,-1,-1,-1,-1,-1,-1,-1,-1,-1,-1,-1,-1,-1,-1,-1,-1,-1,-1,-1,-1,-1,-1,-1,-1,-1,-1,-1,-1,-1,-1,-1,-1,-1,-1,-1,-1,-1,-1,-1,-1,-1,-1,-1,-1,-1,-1,-1,-1,-1,-1,-1,-1,-1,-1,-1,-1,-1,-1,-1,-1,-1,-1],"split_conditions":[2E0,1.3E1,6.154686E-1,6.154686E-1,5.7304126E-1,2E1,7.581031E-1,3.938413E-1,1.52657E5,3.4E1,1.3E1,4E0,5E0,1.9E1,8.303542E-1,2.5E-1,6E0,7E0,1.1E1,1.3E1,3.2E1,2.2E1,3E1,6E0,6E0,1.9E1,1.9E1,1.4E1,1.9E1,3.8E1,4.1E1,1.574618E-1,6E0,3E0,6E0,4E0,7E0,8E0,3.7945E5,1.6E1,3.8791034E-1,4.3E1,5E1,3.582E4,3.8001E4,1.6E1,2.9E1,8.428572E0,6E0,7E0,1.1E1,2.3E1,4E1,2.2E1,5.7E1,1.4E1,1.8E1,2.2E1,6E1,7.1E1,9.1E1,6.9E1,8.9E1,-2.7311656E-1,-2.3844756E-1,-1.7673683E-1,-2.207825E-1,-1.6093959E-1,-9.495983E-2,-2.1864708E-1,-1.2693545E-1,-1.0733916E-1,-3.892941E-2,-1.9366102E-1,-6.584717E-2,6.5538823E-3,-6.288133E-2,1.693775E-1,4.1207898E-1,-2.512476E-1,-2.795425E-1,-2.5225222E-1,-1.8768053E-1,-2.866952E-1,-3.0631864E-1,-2.1860804E-1,-2.818219E-1,-2.4095315E-1,-1.9388561E-1,-2.898502E-1,-2.4776946E-1,-1.1150911E-2,-1.437542E-1,-2.7307722E-1,-1.8790917E-1,-1.5470523E-3,-6.462281E-2,-1.7580034E-1,-1.0463012E-1,1.6080925E-2,-6.5708585E-2,5.7437167E-2,-7.90181E-3,-2.1216138E-1,-2.619611E-1,-1.38844E-1,-2.230931E-1,-1.70016E-1,-2.450116E-1,-5.8183923E-2,-1.5346166E-1,-2.896725E-2,-1.6756761E-1,2.4607316E-2,1.4205615E-1,-1.7597759E-1,-2.4338965E-1,-4.1011084E-2,-1.3852373E-1,-3.5038104E-3,-1.3095933E-1,2.340438E-1,4.134556E-2,5.917136E-2,-4.714491E-2,2.9894853E-1,1.2485141E-1],"split_indices":[4,0,3,3,3,0,3,3,2,0,6,4,4,0,3,3,0,0,6,6,6,0,0,0,4,6,6,6,6,4,4,3,0,6,6,6,6,0,2,0,3,0,0,2,2,0,6,1,6,0,0,0,0,0,0,0,6,0,0,0,0,0,0,0,0,0,0,0,0,0,0,0,0,0,0,0,0,0,0,0,0,0,0,0,0,0,0,0,0,0,0,0,0,0,0,0,0,0,0,0,0,0,0,0,0,0,0,0,0,0,0,0,0,0,0,0,0,0,0,0,0,0,0,0,0,0,0],"split_type":[0,0,0,0,0,0,0,0,0,0,0,0,0,0,0,0,0,0,0,0,0,0,0,0,0,0,0,0,0,0,0,0,0,0,0,0,0,0,0,0,0,0,0,0,0,0,0,0,0,0,0,0,0,0,0,0,0,0,0,0,0,0,0,0,0,0,0,0,0,0,0,0,0,0,0,0,0,0,0,0,0,0,0,0,0,0,0,0,0,0,0,0,0,0,0,0,0,0,0,0,0,0,0,0,0,0,0,0,0,0,0,0,0,0,0,0,0,0,0,0,0,0,0,0,0,0,0],"sum_hessian":[8.2031206E5,3.980652E5,4.2224688E5,1.9619483E5,2.0187036E5,2.0974E5,2.1250686E5,1.2828425E5,6.791058E4,1.2556583E5,7.630453E4,1.0365838E5,1.0608162E5,1.6263148E5,4.987537E4,3.3988516E4,9.4295734E4,6.2340188E4,5.570391E3,7.865124E4,4.691459E4,3.5499324E4,4.080521E4,7.526273E4,2.8395658E4,6.640949E4,3.9672125E4,8.169712E4,8.093437E4,3.6171586E4,1.3703785E4,1.1128734E4,2.2859783E4,3.7830613E4,5.646512E4,3.443744E4,2.7902746E4,5.47332E3,9.7071205E1,4.593251E4,3.2718729E4,2.6907441E4,2.0007146E4,2.0629697E4,1.4869626E4,1.8985174E4,2.1820037E4,1.7971418E4,5.729131E4,1.8429848E4,9.965811E3,1.8846102E4,4.7563395E4,3.2209714E3,3.6451152E4,7.0862484E4,1.0834639E4,1.5353854E4,6.558051E4,3.567078E4,5.0080627E2,1.3410791E4,2.9299466E2,4.750269E3,6.3784653E3,8.245471E3,1.46143125E4,1.8661771E4,1.916884E4,3.277571E4,2.368941E4,2.4070348E4,1.0367096E4,1.673794E4,1.1164807E4,3.966085E3,1.5072351E3,6.7424385E1,2.9646816E1,1.5489501E4,3.044301E4,1.2438459E4,2.028027E4,1.1344438E4,1.5563004E4,6.459941E3,1.3547205E4,1.4686663E4,5.9430337E3,1.1482109E4,3.3875168E3,2.70297E3,1.6282203E4,8.932791E3,1.2887247E4,3.7280798E3,1.4243339E4,1.35121455E4,4.3779164E4,2.910793E3,1.5519056E4,2.1991594E3,7.766651E3,5.431092E3,1.341501E4,2.2923193E4,2.4640201E4,9.621608E2,2.2588105E3,2.6759996E4,9.691156E3,6.1874914E4,8.987566E3,9.82497E3,1.0096691E3,5.5428184E3,9.811035E3,5.1651676E4,1.3928835E4,3.4000348E4,1.6704337E3,3.6730872E2,1.3349757E2,1.2930352E4,4.8043918E2,2.128133E2,8.018135E1],"tree_param":{"num_deleted":"0","num_feature":"7","num_nodes":"127","size_leaf_vector":"0"}},{"base_weights":[-3.7031144E-1,-5.552702E-1,-2.1279359E-1,-4.112891E-1,-7.254401E-1,-4.1830406E-1,-1.5374494E-1,-5.8208317E-1,-3.3888188E-1,-8.3227193E-1,-6.4643854E-1,-3.266814E-1,-5.6575644E-1,-2.2997169E-1,-3.8435377E-2,-7.394462E-1,-5.3047323E-1,-2.5155926E-1,-4.3438977E-1,-7.7386504E-1,-9.160099E-1,-5.2189356E-1,-7.9762083E-1,-3.8411176E-1,-1.6577503E-1,-6.5016145E-1,-3.1353587E-1,-1.06619105E-1,-4.1912293E-1,3.6561828E-2,-1.3105069E-1,-8.3437574E-1,-6.9030297E-1,-4.4948915E-1,-6.037299E-1,-4.2638788E-1,-1.9993217E-1,-5.902469E-1,-2.2099267E-1,-8.137691E-1,-6.357103E-1,-9.402411E-1,-8.0121017E-1,-7.4751717E-1,-4.390676E-1,-9.0492505E-1,-7.015685E-1,-2.7995053E-1,-4.7935376E-1,-1.9481708E-1,8.4784254E-2,-8.109364E-1,-5.9462935E-1,-6.5887773E-1,-2.7011907E-1,6.290855E-2,-1.4867233E-1,-6.804978E-1,-3.2971674E-1,5.8527063E-3,2.4418305E-1,-6.629639E-1,-4.6949875E-2,-2.1370773E-1,-2.701983E-1,-1.8801792E-1,-2.277936E-1,-1.6647461E-1,-1.0815092E-1,-2.1488863E-1,-1.2504731E-1,-6.7013845E-2,-1.4830755E-1,-1.7131101E-2,-7.53192E-2,-1.887361E-1,-1.1964067E-1,-3.3219077E-3,-8.523678E-2,-2.914808E-1,-2.4059714E-1,-2.0038348E-1,-1.3085562E-1,-2.746296E-1,-2.931777E-1,-2.2448786E-1,-2.6171526E-1,-2.629398E-1,-2.0485714E-1,-7.601124E-2,-1.5167889E-1,-2.4739935E-1,-2.8773218E-1,-1.331376E-1,-2.4296696E-1,-1.2340386E-1,-6.366367E-2,-1.9748423E-1,-1.2231828E-1,-4.6234686E-2,-1.5749583E-1,1.7836597E-3,1.2174584E-1,-2.2635387E-1,-2.768224E-1,-1.570941E-1,-2.4378492E-1,-1.6345477E-1,-2.5974363E-1,-5.802639E-2,-1.654835E-1,-3.1541754E-3,5.8988493E-2,-1.23132825E-1,-2.7338319E-2,-1.8322954E-1,-2.4261229E-1,-5.532573E-2,-1.5802288E-1,1.4521838E-2,-1.4557576E-1,1.317E-1,5.2317206E-2,-1.3597937E-1,-2.3724245E-1,-4.824759E-2,2.686045E-2],"categories":[],"categories_nodes":[],"categories_segments":[],"categories_sizes":[],"default_left":[0,0,0,0,0,0,0,0,0,0,0,0,0,0,0,0,0,0,0,0,0,0,0,0,0,0,0,0,0,0,0,0,0,0,0,0,0,0,0,0,0,0,0,0,0,0,0,0,0,0,0,0,0,0,0,0,0,0,0,0,0,0,0,0,0,0,0,0,0,0,0,0,0,0,0,0,0,0,0,0,0,0,0,0,0,0,0,0,0,0,0,0,0,0,0,0,0,0,0,0,0,0,0,0,0,0,0,0,0,0,0,0,0,0,0,0,0,0,0,0,0,0,0,0,0,0,0],"id":7,"left_children":[1,3,5,7,9,11,13,15,17,19,21,23,25,27,29,31,33,35,37,39,41,43,45,47,49,51,53,55,57,59,61,63,65,67,69,71,73,75,77,79,81,83,85,87,89,91,93,95,97,99,101,103,105,107,109,111,113,115,117,119,121,123,125,-1,-1,-1,-1,-1,-1,-1,-1,-1,-1,-1,-1,-1,-1,-1,-1,-1,-1,-1,-1,-1,-1,-1,-1,-1,-1,-1,-1,-1,-1,-1,-1,-1,-1,-1,-1,-1,-1,-1,-1,-1,-1,-1,-1,-1,-1,-1,-1,-1,-1,-1,-1,-1,-1,-1,-1,-1,-1,-1,-1,-1,-1,-1,-1],"loss_changes":[2.1578328E4,8.346148E3,4.853994E3,2.2818145E3,1.3171562E3,1.2059619E3,2.7311523E3,4.4578125E2,1.0806885E3,3.2389453E2,1.6896445E3,5.0879395E2,7.281553E2,4.3645693E3,8.589451E2,6.2708008E1,2.4517969E2,6.1096094E2,2.058421E3,2.1506445E2,7.50918E1,9.1943066E2,4.172207E2,4.0244873E2,1.05427795E2,2.2838184E2,1.2847595E2,8.0722046E2,1.7252578E3,4.356665E2,2.4752039E3,3.674341E1,3.876416E1,1.841836E2,4.5667188E2,2.1284473E2,3.8169727E2,2.6594336E2,3.4622522E2,5.5621094E1,5.6101807E1,1.977539E1,1.7270264E1,1.09583496E2,4.4467236E2,8.246875E1,5.970996E2,1.7245105E2,2.713838E2,1.7437152E2,3.809808E1,4.0801758E1,2.9444287E2,2.212387E1,1.6449377E2,2.2095932E2,1.3665519E3,1.6775293E2,1.5749907E3,1.2440377E3,1.1963556E2,2.0215723E2,7.426048E2,0E0,0E0,0E0,0E0,0E0,0E0,0E0,0E0,0E0,0E0,0E0,0E0,0E0,0E0,0E0,0E0,0E0,0E0,0E0,0E0,0E0,0E0,0E0,0E0,0E0,0E0,0E0,0E0,0E0,0E0,0E0,0E0,0E0,0E0,0E0,0E0,0E0,0E0,0E0,0E0,0E0,0E0,0E0,0E0,0E0,0E0,0E0,0E0,0E0,0E0,0E0,0E0,0E0,0E0,0E0,0E0,0E0,0E0,0E0,0E0,0E0,0E0,0E0,0E0],"parents":[2147483647,0,0,1,1,2,2,3,3,4,4,5,5,6,6,7,7,8,8,9,9,10,10,11,11,12,12,13,13,14,14,15,15,16,16,17,17,18,18,19,19,20,20,21,21,22,22,23,23,24,24,25,25,26,26,27,27,28,28,29,29,30,30,31,31,32,32,33,33,34,34,35,35,36,36,37,37,38,38,39,39,40,40,41,41,42,42,43,43,44,44,45,45,46,46,47,47,48,48,49,49,50,50,51,51,52,52,53,53,54,54,55,55,56,56,57,57,58,58,59,59,60,60,61,61,62,62],"right_children":[2,4,6,8,10,12,14,16,18,20,22,24,26,28,30,32,34,36,38,40,42,44,46,48,50,52,54,56,58,60,62,64,66,68,70,72,74,76,78,80,82,84,86,88,90,92,94,96,98,100,102,104,106,108,110,112,114,116,118,120,122,124,126,-1,-1,-1,-1,-1,-1,-1,-1,-1,-1,-1,-1,-1,-1,-1,-1,-1,-1,-1,-1,-1,-1,-1,-1,-1,-1,-1,-1,-1,-1,-1,-1,-1,-1,-1,-1,-1,-1,-1,-1,-1,-1,-1,-1,-1,-1,-1,-1,-1,-1,-1,-1,-1,-1,-1,-1,-1,-1,-1,-1,-1,-1,-1,-1],"split_conditions":[2E0,1.4E1,5.149652E-1,4.7854203E-1,1.3E1,2.7E1,5E0,2.847222E-1,7E0,2.4E1,3.6E1,4E0,6E0,1.7E1,3.1E1,1.6675192E-1,7E0,2E0,7E0,1.4687E4,1.7332E4,4.2056692E-1,3.5E1,1.1E1,2.2E1,2.4E1,2.7E1,5E0,1.6E1,2.5E1,3.1E1,7.9E1,8E0,3E0,7E0,1.0066667E1,4E0,4.9021E4,9E0,1.8406285E-1,1.0006E5,3.9E1,3.7E1,2.5041598E-1,1.9E1,4.4E1,5.1E1,4.005979E-1,1E1,2.2E1,1E1,4.1E1,6.6E1,3.4E1,7.2E1,3E0,5E0,2.6E1,3.8E1,2.5E1,2.7E1,3.4E1,1.3E1,-2.1370773E-1,-2.701983E-1,-1.8801792E-1,-2.277936E-1,-1.6647461E-1,-1.0815092E-1,-2.1488863E-1,-1.2504731E-1,-6.7013845E-2,-1.4830755E-1,-1.7131101E-2,-7.53192E-2,-1.887361E-1,-1.1964067E-1,-3.3219077E-3,-8.523678E-2,-2.914808E-1,-2.4059714E-1,-2.0038348E-1,-1.3085562E-1,-2.746296E-1,-2.931777E-1,-2.2448786E-1,-2.6171526E-1,-2.629398E-1,-2.0485714E-1,-7.601124E-2,-1.5167889E-1,-2.4739935E-1,-2.8773218E-1,-1.331376E-1,-2.4296696E-1,-1.2340386E-1,-6.366367E-2,-1.9748423E-1,-1.2231828E-1,-4.6234686E-2,-1.5749583E-1,1.7836597E-3,1.2174584E-1,-2.2635387E-1,-2.768224E-1,-1.570941E-1,-2.4378492E-1,-1.6345477E-1,-2.5974363E-1,-5.802639E-2,-1.654835E-1,-3.1541754E-3,5.8988493E-2,-1.23132825E-1,-2.7338319E-2,-1.8322954E-1,-2.4261229E-1,-5.532573E-2,-1.5802288E-1,1.4521838E-2,-1.4557576E-1,1.317E-1,5.2317206E-2,-1.3597937E-1,-2.3724245E-1,-4.824759E-2,2.686045E-2],"split_indices":[4,0,3,3,6,0,4,3,0,0,0,4,4,0,0,3,0,6,6,2,2,3,6,0,6,6,6,0,6,6,6,2,0,6,6,1,0,2,0,3,2,0,0,3,0,0,0,3,6,0,4,0,0,0,0,4,6,0,0,0,0,0,4,0,0,0,0,0,0,0,0,0,0,0,0,0,0,0,0,0,0,0,0,0,0,0,0,0,0,0,0,0,0,0,0,0,0,0,0,0,0,0,0,0,0,0,0,0,0,0,0,0,0,0,0,0,0,0,0,0,0,0,0,0,0,0,0],"split_type":[0,0,0,0,0,0,0,0,0,0,0,0,0,0,0,0,0,0,0,0,0,0,0,0,0,0,0,0,0,0,0,0,0,0,0,0,0,0,0,0,0,0,0,0,0,0,0,0,0,0,0,0,0,0,0,0,0,0,0,0,0,0,0,0,0,0,0,0,0,0,0,0,0,0,0,0,0,0,0,0,0,0,0,0,0,0,0,0,0,0,0,0,0,0,0,0,0,0,0,0,0,0,0,0,0,0,0,0,0,0,0,0,0,0,0,0,0,0,0,0,0,0,0,0,0,0,0],"sum_hessian":[7.406531E5,3.4065303E5,4.0000006E5,1.8452742E5,1.5612561E5,8.927723E4,3.1072284E5,5.493641E4,1.29591016E5,6.636809E4,8.9757516E4,5.5064785E4,3.4212445E4,1.8706217E5,1.23660664E5,1.3564315E4,4.1372094E4,6.769827E4,6.1892742E4,3.910366E4,2.7264432E4,4.9216812E4,4.0540707E4,4.0579758E4,1.4485027E4,2.5632885E4,8.579561E3,1.1322529E5,7.383688E4,6.832979E4,5.533088E4,4.621336E3,8.9429795E3,1.965306E4,2.1719033E4,1.5432109E4,5.2266164E4,3.576765E4,2.6125096E4,3.0336492E4,8.767167E3,2.2506676E4,4.757756E3,1.3213713E4,3.6003098E4,1.9144803E4,2.1395904E4,1.93842E4,2.1195559E4,1.2980674E4,1.504353E3,6.5771855E3,1.90557E4,9.565876E2,7.6229727E3,2.2504242E4,9.072105E4,1.8817672E4,5.5019207E4,5.9526312E4,8.803472E3,7.553064E3,4.7777816E4,1.6309167E3,2.9904192E3,4.6599453E3,4.283034E3,8.99317E3,1.0659892E4,1.3553488E4,8.165544E3,3.8719631E3,1.1560146E4,1.3778968E4,3.8487195E4,2.9728838E4,6.0388096E3,6.040475E3,2.0084621E4,2.101044E3,2.8235447E4,7.5457524E3,1.2214147E3,1.3490888E4,9.015787E3,2.7354695E3,2.0222865E3,4.408826E3,8.804887E3,9.497685E3,2.6505414E4,7.722146E3,1.1422656E4,6.3321484E3,1.5063756E4,6.5920903E3,1.2792108E4,6.056879E3,1.5138679E4,1.1557406E4,1.4232682E3,1.2085741E3,2.9577896E2,4.3763574E3,2.2008281E3,1.4377431E4,4.6782686E3,6.190829E2,3.375047E2,5.992024E3,1.6309486E3,1.452811E4,7.9761323E3,1.6347976E4,7.437307E4,1.219217E4,6.6255015E3,3.1667691E4,2.3351518E4,5.4780574E4,4.74574E3,2.3205762E3,6.482895E3,2.8624355E3,4.6906284E3,2.6046148E4,2.173167E4],"tree_param":{"num_deleted":"0","num_feature":"7","num_nodes":"127","size_leaf_vector":"0"}},{"base_weights":[-2.9158354E-1,-4.6109048E-1,-1.5974477E-1,-3.312565E-1,-6.476218E-1,-2.8732392E-1,-9.5038734E-2,-3.9415136E-1,-1.5631296E-1,-7.737382E-1,-5.533994E-1,-1.9544274E-1,-4.1180694E-1,-1.356558E-1,4.087794E-2,-5.8971727E-1,-3.5415062E-1,-1.7754494E-1,2.539741E-1,-7.07172E-1,-8.5820717E-1,-4.350295E-1,-7.4464405E-1,-4.0142798E-1,-1.6224541E-1,-5.5953E-1,-2.6391137E-1,-1.1865531E-1,-4.4576362E-1,4.140666E-3,1.6058257E-1,-7.5945723E-1,-5.458413E-1,-2.8419566E-1,-4.4928077E-1,-1.3312878E-1,-4.7844833E-1,1.6634536E-1,5.6381905E-1,-7.34225E-1,-5.1834786E-1,-8.8794035E-1,-7.213183E-1,-5.277624E-1,-2.0498452E-1,-8.719822E-1,-6.2733996E-1,-4.720777E-1,-2.8411782E-1,-1.8659326E-1,4.4113073E-2,-7.057709E-1,-4.9348488E-1,-6.5102583E-1,-2.2489163E-1,-1.9240057E-1,-4.4750955E-2,-8.7964606E-1,-2.0379956E-1,7.871776E-2,-5.0387632E-2,8.055539E-2,2.2863981E-1,-1.8694413E-1,-2.4525759E-1,-1.4209625E-1,-1.8689653E-1,-1.0006829E-1,-2.2562368E-2,-1.7463371E-1,-7.38451E-2,-5.241484E-2,1.124244E-2,-1.5895498E-1,-9.744851E-2,1.48109915E-2,1.2563328E-1,-1.697776E-1,1.7835937E-1,-2.3539054E-1,-2.073012E-1,-1.6903928E-1,-1.1287426E-1,-2.578182E-1,-2.8063577E-1,-2.0468882E-1,-2.5278914E-1,-2.1502843E-1,-1.3659261E-1,-8.637695E-2,3.8808208E-2,-2.3362133E-1,-2.750246E-1,-1.2268584E-1,-2.3198053E-1,-1.7309809E-1,-1.1705217E-1,-9.564285E-2,-8.614484E-3,-4.2357855E-2,-1.5343183E-1,6.857163E-2,-3.9738077E-3,-1.9169898E-1,-2.5021294E-1,-1.1981746E-1,-2.076286E-1,-1.8444555E-1,-2.409285E-1,-5.0965313E-2,-1.5493143E-1,-1.5962675E-2,-8.823894E-2,-1.8596614E-2,4.13934E-2,-2.1565981E-1,-2.8144252E-1,1.3522984E-2,-1.0187471E-1,1.6340835E-2,1.16658606E-1,-1.9280355E-1,4.6726353E-3,4.669019E-2,-1.127043E-1,1.2672684E-1,5.894437E-2],"categories":[],"categories_nodes":[],"categories_segments":[],"categories_sizes":[],"default_left":[0,0,0,0,0,0,0,0,0,0,0,0,0,0,0,0,0,0,0,0,0,0,0,0,0,0,0,0,0,0,0,0,0,0,0,0,0,0,0,0,0,0,0,0,0,0,0,0,0,0,0,0,0,0,0,0,0,0,0,0,0,0,0,0,0,0,0,0,0,0,0,0,0,0,0,0,0,0,0,0,0,0,0,0,0,0,0,0,0,0,0,0,0,0,0,0,0,0,0,0,0,0,0,0,0,0,0,0,0,0,0,0,0,0,0,0,0,0,0,0,0,0,0,0,0,0,0],"id":8,"left_children":[1,3,5,7,9,11,13,15,17,19,21,23,25,27,29,31,33,35,37,39,41,43,45,47,49,51,53,55,57,59,61,63,65,67,69,71,73,75,77,79,81,83,85,87,89,91,93,95,97,99,101,103,105,107,109,111,113,115,117,119,121,123,125,-1,-1,-1,-1,-1,-1,-1,-1,-1,-1,-1,-1,-1,-1,-1,-1,-1,-1,-1,-1,-1,-1,-1,-1,-1,-1,-1,-1,-1,-1,-1,-1,-1,-1,-1,-1,-1,-1,-1,-1,-1,-1,-1,-1,-1,-1,-1,-1,-1,-1,-1,-1,-1,-1,-1,-1,-1,-1,-1,-1,-1,-1,-1,-1],"loss_changes":[1.5177348E4,7.1956797E3,3.1536396E3,1.9275762E3,1.4485625E3,1.4702842E3,1.3993003E3,1.00785547E3,4.0363477E2,2.9257227E2,1.5797344E3,5.0571777E2,1.1925391E3,1.0287866E3,2.564668E2,1.625376E2,7.118281E2,5.886758E2,6.1810608E1,1.486084E2,9.2875E1,9.1966797E2,3.980293E2,8.49436E1,3.2006396E2,2.6343262E2,4.1194434E2,1.0083196E3,1.0645781E3,1.81476E2,7.457138E1,3.504248E1,9.654834E1,6.360205E2,1.2230264E3,2.7235565E2,4.4565308E1,5.250266E1,1.7762451E1,5.503711E1,2.3242554E1,2.4791992E1,1.885913E1,4.204541E2,3.4357507E2,5.2682617E1,4.424209E2,5.4815308E1,3.420047E1,8.402472E2,7.114044E1,7.222363E1,3.5137842E2,1.32578125E1,3.973938E2,1.3112563E3,2.91076E2,3.3472656E1,2.2008823E2,1.4172586E2,1.00714935E3,2.1570615E2,4.6035583E1,0E0,0E0,0E0,0E0,0E0,0E0,0E0,0E0,0E0,0E0,0E0,0E0,0E0,0E0,0E0,0E0,0E0,0E0,0E0,0E0,0E0,0E0,0E0,0E0,0E0,0E0,0E0,0E0,0E0,0E0,0E0,0E0,0E0,0E0,0E0,0E0,0E0,0E0,0E0,0E0,0E0,0E0,0E0,0E0,0E0,0E0,0E0,0E0,0E0,0E0,0E0,0E0,0E0,0E0,0E0,0E0,0E0,0E0,0E0,0E0,0E0,0E0,0E0,0E0],"parents":[2147483647,0,0,1,1,2,2,3,3,4,4,5,5,6,6,7,7,8,8,9,9,10,10,11,11,12,12,13,13,14,14,15,15,16,16,17,17,18,18,19,19,20,20,21,21,22,22,23,23,24,24,25,25,26,26,27,27,28,28,29,29,30,30,31,31,32,32,33,33,34,34,35,35,36,36,37,37,38,38,39,39,40,40,41,41,42,42,43,43,44,44,45,45,46,46,47,47,48,48,49,49,50,50,51,51,52,52,53,53,54,54,55,55,56,56,57,57,58,58,59,59,60,60,61,61,62,62],"right_children":[2,4,6,8,10,12,14,16,18,20,22,24,26,28,30,32,34,36,38,40,42,44,46,48,50,52,54,56,58,60,62,64,66,68,70,72,74,76,78,80,82,84,86,88,90,92,94,96,98,100,102,104,106,108,110,112,114,116,118,120,122,124,126,-1,-1,-1,-1,-1,-1,-1,-1,-1,-1,-1,-1,-1,-1,-1,-1,-1,-1,-1,-1,-1,-1,-1,-1,-1,-1,-1,-1,-1,-1,-1,-1,-1,-1,-1,-1,-1,-1,-1,-1,-1,-1,-1,-1,-1,-1,-1,-1,-1,-1,-1,-1,-1,-1,-1,-1,-1,-1,-1,-1,-1,-1,-1,-1],"split_conditions":[2E0,1.5E1,5.683582E-1,6.511994E-1,1.4E1,2.3E1,7.386908E-1,3.6018237E-1,1.1E1,2.4E1,4.1E1,3.6018237E-1,4E0,7.2E1,2.64683E5,1.7857143E-1,8E0,1.1E1,7.533539E-1,3.5663E4,1.7411E4,6.157039E-1,3.9E1,3E0,1.7E1,2.2E1,2.1E1,4E0,7E1,1.4E1,1.2E1,6E1,8E0,5E0,8E0,7.655642E-1,9E0,1.6642857E1,5.114286E0,2.098E3,1.04823E5,4E1,4.6E1,3.7111294E-1,2.6E1,4.7E1,6E1,2.787546E-1,6E0,1.7E1,1.9E1,3.5E1,5.4E1,3.8E1,7.2E1,1E1,4.9E1,7.7E1,8.7E1,1.2E1,1.3E1,1.2E1,1.6E1,-1.8694413E-1,-2.4525759E-1,-1.4209625E-1,-1.8689653E-1,-1.0006829E-1,-2.2562368E-2,-1.7463371E-1,-7.38451E-2,-5.241484E-2,1.124244E-2,-1.5895498E-1,-9.744851E-2,1.48109915E-2,1.2563328E-1,-1.697776E-1,1.7835937E-1,-2.3539054E-1,-2.073012E-1,-1.6903928E-1,-1.1287426E-1,-2.578182E-1,-2.8063577E-1,-2.0468882E-1,-2.5278914E-1,-2.1502843E-1,-1.3659261E-1,-8.637695E-2,3.8808208E-2,-2.3362133E-1,-2.750246E-1,-1.2268584E-1,-2.3198053E-1,-1.7309809E-1,-1.1705217E-1,-9.564285E-2,-8.614484E-3,-4.2357855E-2,-1.5343183E-1,6.857163E-2,-3.9738077E-3,-1.9169898E-1,-2.5021294E-1,-1.1981746E-1,-2.076286E-1,-1.8444555E-1,-2.409285E-1,-5.0965313E-2,-1.5493143E-1,-1.5962675E-2,-8.823894E-2,-1.8596614E-2,4.13934E-2,-2.1565981E-1,-2.8144252E-1,1.3522984E-2,-1.0187471E-1,1.6340835E-2,1.16658606E-1,-1.9280355E-1,4.6726353E-3,4.669019E-2,-1.127043E-1,1.2672684E-1,5.894437E-2],"split_indices":[4,0,3,3,6,0,3,3,6,0,0,3,4,0,2,3,0,0,3,2,2,3,6,4,6,6,6,4,6,0,6,2,0,6,6,3,6,1,1,2,2,0,0,3,6,0,0,3,4,0,0,0,0,0,0,0,6,0,0,6,6,0,0,0,0,0,0,0,0,0,0,0,0,0,0,0,0,0,0,0,0,0,0,0,0,0,0,0,0,0,0,0,0,0,0,0,0,0,0,0,0,0,0,0,0,0,0,0,0,0,0,0,0,0,0,0,0,0,0,0,0,0,0,0,0,0,0],"split_type":[0,0,0,0,0,0,0,0,0,0,0,0,0,0,0,0,0,0,0,0,0,0,0,0,0,0,0,0,0,0,0,0,0,0,0,0,0,0,0,0,0,0,0,0,0,0,0,0,0,0,0,0,0,0,0,0,0,0,0,0,0,0,0,0,0,0,0,0,0,0,0,0,0,0,0,0,0,0,0,0,0,0,0,0,0,0,0,0,0,0,0,0,0,0,0,0,0,0,0,0,0,0,0,0,0,0,0,0,0,0,0,0,0,0,0,0,0,0,0,0,0,0,0,0,0,0,0],"sum_hessian":[6.7915144E5,2.9712775E5,3.820237E5,1.7519036E5,1.2193738E5,1.2855391E5,2.5346978E5,1.2886146E5,4.6328902E4,5.21404E4,6.9796984E4,7.396372E4,5.4590195E4,1.9515119E5,5.8318586E4,2.187918E4,1.0698228E5,4.4049926E4,2.2789768E3,2.916563E4,2.2974768E4,4.3114668E4,2.6682318E4,1.0264251E4,6.3699465E4,2.7309633E4,2.7280562E4,1.850101E5,1.0141099E4,4.4624418E4,1.3694169E4,4.49056E3,1.7388621E4,6.1650742E4,4.533154E4,3.8385332E4,5.6645938E3,1.7777418E3,5.01235E2,2.5508166E4,3.6574653E3,1.8870484E4,4.104282E3,3.0727059E4,1.2387608E4,1.2790883E4,1.3891436E4,6.4042715E3,3.8599792E3,5.6976957E4,6.722508E3,8.493396E3,1.8816234E4,2.4965562E3,2.4784006E4,9.2603914E4,9.240618E4,3.6297354E3,6.511364E3,1.8847154E4,2.5777262E4,6.2946255E3,7.3995435E3,1.3450028E3,3.1455571E3,8.986775E3,8.401846E3,4.9870223E4,1.17805205E4,2.7407365E4,1.7924172E4,3.0862162E4,7.5231704E3,4.2425713E3,1.4220225E3,1.215625E3,5.621168E2,1.2804269E1,4.884307E2,1.1766874E4,1.3741292E4,2.7738208E3,8.8364465E2,1.1799918E4,7.0705664E3,3.110393E3,9.938892E2,8.512612E3,2.2214445E4,9.925579E3,2.4620288E3,4.1549277E3,8.635955E3,5.565808E3,8.325627E3,2.8050537E3,3.5992178E3,3.3981555E3,4.618238E2,4.9991582E4,6.985375E3,1.5938666E3,5.128641E3,5.589611E3,2.903786E3,1.2769558E4,6.046677E3,2.0205177E3,4.7603854E2,2.0851457E4,3.932548E3,3.910279E4,5.3501125E4,8.4441086E4,7.9650967E3,9.718407E2,2.6578945E3,2.2987163E3,4.2126475E3,1.7481553E4,1.3656016E3,2.582242E3,2.319502E4,5.4057163E3,8.8890936E2,1.0514601E3,6.3480835E3],"tree_param":{"num_deleted":"0","num_feature":"7","num_nodes":"127","size_leaf_vector":"0"}},{"base_weights":[-2.2486576E-1,-3.7418795E-1,-1.1794581E-1,-2.6215306E-1,-5.6821376E-1,-2.93023E-1,-8.628628E-2,-4.493541E-1,-2.121213E-1,-7.109962E-1,-4.6210825E-1,-2.3016196E-1,-4.6029258E-1,-5.357427E-2,-2.2787045E-1,-5.922795E-1,-3.958051E-1,-8.377531E-2,-2.624338E-1,-6.4726293E-1,-8.1457597E-1,-2.2362371E-1,-5.729847E-1,-2.6860544E-1,-3.9376497E-2,-6.9998807E-1,-3.6187303E-1,-8.686507E-2,7.775919E-2,-7.425085E-1,-5.134928E-2,-5.022465E-1,-6.690165E-1,-2.4648248E-1,-4.4018492E-1,-1.766255E-1,1.6052486E-2,-4.150546E-1,-1.4221413E-1,-7.0819104E-1,-5.439854E-1,-8.469878E-1,-6.534794E-1,-3.186525E-1,1.8004626E-2,-7.556142E-1,-4.8501936E-1,-1.815495E-1,-3.5935163E-1,-5.865857E-2,2.135177E-1,-5.9061706E-1,-7.9848194E-1,-2.7231786E-1,-5.478593E-1,2.7703622E-2,-1.372012E-1,5.628898E-2,3.4379223E-1,-5.8166975E-1,-8.206261E-1,1.4414212E-1,-2.0470323E-1,-1.6461512E-1,-8.987896E-2,-2.233532E-1,-1.6155201E-1,-1.05507135E-1,-3.5923727E-2,-1.7322806E-1,-9.509901E-2,6.5916043E-4,-7.175231E-2,-1.1452427E-2,4.2695083E-2,-1.471382E-1,-9.0429895E-2,5.2390355E-3,-6.2252693E-2,-2.6815018E-1,-2.0824534E-1,-1.7824832E-1,-1.3394125E-1,-2.4452254E-1,-2.6969412E-1,-2.1333644E-1,-1.5919192E-1,-1.967035E-1,-8.096779E-2,-1.6352305E-2,1.789885E-1,-2.3324683E-1,-1.4902832E-1,-6.839215E-2,-1.893294E-1,-7.070718E-2,-2.4512662E-2,-1.6078225E-1,-8.130939E-2,2.7970893E-2,-2.9300164E-2,4.2927116E-2,1.1498783E-1,-2.2947659E-1,-1.6955735E-1,-2.5054023E-1,-1.8900871E-1,-1.309229E-1,-5.7109136E-2,-2.381835E-1,-1.1738861E-1,-6.1415467E-2,1.5258497E-2,-1.22831345E-1,-2.3745134E-2,2.5663977E-2,-1.4827931E-1,8.1301406E-2,1.5493251E-1,-1.963272E-1,-9.5068835E-2,-2.4305202E-1,-4.647996E-1,2.465085E-2,1.1895938E-1,-2.0390962E-1,-2.4965828E-2],"categories":[],"categories_nodes":[],"categories_segments":[],"categories_sizes":[],"default_left":[0,0,0,0,0,0,0,0,0,0,0,0,0,0,0,0,0,0,0,0,0,0,0,0,0,0,0,0,0,0,0,0,0,0,0,0,0,0,0,0,0,0,0,0,0,0,0,0,0,0,0,0,0,0,0,0,0,0,0,0,0,0,0,0,0,0,0,0,0,0,0,0,0,0,0,0,0,0,0,0,0,0,0,0,0,0,0,0,0,0,0,0,0,0,0,0,0,0,0,0,0,0,0,0,0,0,0,0,0,0,0,0,0,0,0,0,0,0,0,0,0,0,0,0,0,0,0],"id":9,"left_children":[1,3,5,7,9,11,13,15,17,19,21,23,25,27,29,31,33,35,37,39,41,43,45,47,49,51,53,55,57,59,61,63,65,67,69,71,73,75,77,79,81,83,85,87,89,91,93,95,97,99,101,103,105,107,109,111,113,115,117,119,121,123,125,-1,-1,-1,-1,-1,-1,-1,-1,-1,-1,-1,-1,-1,-1,-1,-1,-1,-1,-1,-1,-1,-1,-1,-1,-1,-1,-1,-1,-1,-1,-1,-1,-1,-1,-1,-1,-1,-1,-1,-1,-1,-1,-1,-1,-1,-1,-1,-1,-1,-1,-1,-1,-1,-1,-1,-1,-1,-1,-1,-1,-1,-1,-1,-1],"loss_changes":[1.0123521E4,5.751215E3,2.0481172E3,1.570877E3,1.4669531E3,5.948823E2,1.4492993E3,2.7049512E2,8.546763E2,2.7202734E2,1.4691104E3,3.0166577E2,3.643579E2,1.1114021E3,5.335222E3,6.625806E1,1.7043677E2,3.45511E2,1.7445586E3,1.6048242E2,8.154492E1,4.0495587E2,6.089668E2,2.7037646E2,3.3655388E1,4.7980713E1,1.8238245E2,1.1694962E3,2.9359393E2,1.8798047E2,1.3110637E3,4.1641113E1,5.0840332E1,7.860776E1,3.3520557E2,2.1601727E2,1.23002686E2,3.5880615E2,5.545668E2,4.127881E1,4.6168457E1,2.0980469E1,1.830127E1,2.0783398E2,2.0894116E2,6.9421875E1,9.6117334E2,9.44353E1,2.612556E2,3.799708E1,5.791849E0,9.030029E0,1.4067993E1,9.9419556E1,1.3688086E2,3.3319308E2,2.2265513E3,7.6624866E2,4.8098938E1,9.431616E1,7.562549E1,3.0066998E2,1.4141119E3,0E0,0E0,0E0,0E0,0E0,0E0,0E0,0E0,0E0,0E0,0E0,0E0,0E0,0E0,0E0,0E0,0E0,0E0,0E0,0E0,0E0,0E0,0E0,0E0,0E0,0E0,0E0,0E0,0E0,0E0,0E0,0E0,0E0,0E0,0E0,0E0,0E0,0E0,0E0,0E0,0E0,0E0,0E0,0E0,0E0,0E0,0E0,0E0,0E0,0E0,0E0,0E0,0E0,0E0,0E0,0E0,0E0,0E0,0E0,0E0,0E0,0E0,0E0,0E0],"parents":[2147483647,0,0,1,1,2,2,3,3,4,4,5,5,6,6,7,7,8,8,9,9,10,10,11,11,12,12,13,13,14,14,15,15,16,16,17,17,18,18,19,19,20,20,21,21,22,22,23,23,24,24,25,25,26,26,27,27,28,28,29,29,30,30,31,31,32,32,33,33,34,34,35,35,36,36,37,37,38,38,39,39,40,40,41,41,42,42,43,43,44,44,45,45,46,46,47,47,48,48,49,49,50,50,51,51,52,52,53,53,54,54,55,55,56,56,57,57,58,58,59,59,60,60,61,61,62,62],"right_children":[2,4,6,8,10,12,14,16,18,20,22,24,26,28,30,32,34,36,38,40,42,44,46,48,50,52,54,56,58,60,62,64,66,68,70,72,74,76,78,80,82,84,86,88,90,92,94,96,98,100,102,104,106,108,110,112,114,116,118,120,122,124,126,-1,-1,-1,-1,-1,-1,-1,-1,-1,-1,-1,-1,-1,-1,-1,-1,-1,-1,-1,-1,-1,-1,-1,-1,-1,-1,-1,-1,-1,-1,-1,-1,-1,-1,-1,-1,-1,-1,-1,-1,-1,-1,-1,-1,-1,-1,-1,-1,-1,-1,-1,-1,-1,-1,-1,-1,-1,-1,-1,-1,-1,-1,-1,-1],"split_conditions":[2E0,1.6E1,4.809945E-1,4.4067797E-1,1.5E1,3.4E1,4.1E1,2.721239E-1,5E0,2.7E1,2.7E1,5E0,3.3E1,7E0,4E1,8E0,5E0,3E0,5E0,6.925E3,1.94E4,6.288427E-1,2.6E1,1.3E1,1.2E1,4.1E1,6.6E1,8E0,3.6E1,4.5E1,5.7E1,5E0,8E0,3E0,5E0,9.7E0,4E0,1.2048E4,8E0,1.7073171E-1,3.582E4,4.3E1,6.4289E4,2.826087E-1,2.3E1,4.5238E4,4.3E1,3E0,1.3E1,1.2E1,1.6E1,1.4E1,5.874E3,3.604651E-1,6.5E1,3E0,8E0,3.6E1,3.9E1,3.8E1,2.2E1,5.1E1,5.6E1,-1.6461512E-1,-8.987896E-2,-2.233532E-1,-1.6155201E-1,-1.05507135E-1,-3.5923727E-2,-1.7322806E-1,-9.509901E-2,6.5916043E-4,-7.175231E-2,-1.1452427E-2,4.2695083E-2,-1.471382E-1,-9.0429895E-2,5.2390355E-3,-6.2252693E-2,-2.6815018E-1,-2.0824534E-1,-1.7824832E-1,-1.3394125E-1,-2.4452254E-1,-2.6969412E-1,-2.1333644E-1,-1.5919192E-1,-1.967035E-1,-8.096779E-2,-1.6352305E-2,1.789885E-1,-2.3324683E-1,-1.4902832E-1,-6.839215E-2,-1.893294E-1,-7.070718E-2,-2.4512662E-2,-1.6078225E-1,-8.130939E-2,2.7970893E-2,-2.9300164E-2,4.2927116E-2,1.1498783E-1,-2.2947659E-1,-1.6955735E-1,-2.5054023E-1,-1.8900871E-1,-1.309229E-1,-5.7109136E-2,-2.381835E-1,-1.1738861E-1,-6.1415467E-2,1.5258497E-2,-1.22831345E-1,-2.3745134E-2,2.5663977E-2,-1.4827931E-1,8.1301406E-2,1.5493251E-1,-1.963272E-1,-9.5068835E-2,-2.4305202E-1,-4.647996E-1,2.465085E-2,1.1895938E-1,-2.0390962E-1,-2.4965828E-2],"split_indices":[4,0,3,3,6,0,0,3,0,0,0,4,6,4,6,0,0,6,6,2,2,3,6,0,4,0,0,0,6,0,0,6,6,6,6,1,6,2,0,3,2,0,2,3,6,2,0,4,6,0,4,6,2,3,6,6,6,0,6,6,4,6,6,0,0,0,0,0,0,0,0,0,0,0,0,0,0,0,0,0,0,0,0,0,0,0,0,0,0,0,0,0,0,0,0,0,0,0,0,0,0,0,0,0,0,0,0,0,0,0,0,0,0,0,0,0,0,0,0,0,0,0,0,0,0,0,0],"split_type":[0,0,0,0,0,0,0,0,0,0,0,0,0,0,0,0,0,0,0,0,0,0,0,0,0,0,0,0,0,0,0,0,0,0,0,0,0,0,0,0,0,0,0,0,0,0,0,0,0,0,0,0,0,0,0,0,0,0,0,0,0,0,0,0,0,0,0,0,0,0,0,0,0,0,0,0,0,0,0,0,0,0,0,0,0,0,0,0,0,0,0,0,0,0,0,0,0,0,0,0,0,0,0,0,0,0,0,0,0,0,0,0,0,0,0,0,0,0,0,0,0,0,0,0,0,0,0],"sum_hessian":[6.3408844E5,2.645796E5,3.6950884E5,1.6773055E5,9.684905E4,5.6585105E4,3.1292375E5,3.5372234E4,1.3235831E5,4.12861E4,5.5562945E4,4.11304E4,1.5454707E4,2.5419516E5,5.872858E4,9.637949E3,2.5734285E4,3.7274543E4,9.508377E4,2.556379E4,1.57223125E4,1.7634934E4,3.792801E4,3.423217E4,6.8982266E3,4.4968237E3,1.0957883E4,2.0279134E5,5.1403812E4,1.4998384E4,4.3730195E4,4.438246E3,5.1997036E3,5.8975723E3,1.9836713E4,1.93118E4,1.7962742E4,4.1894977E4,5.3188793E4,1.6074719E4,9.48907E3,1.3085349E4,2.6369634E3,1.2656861E4,4.9780728E3,1.2327223E4,2.5600787E4,1.7472861E4,1.675931E4,6.4102417E3,4.879847E2,2.1340725E3,2.3627512E3,7.3980674E3,3.5598154E3,6.190089E4,1.4089045E5,4.7566195E4,3.83762E3,4.9059062E3,1.0092478E4,1.9224012E4,2.4506182E4,3.608953E3,8.2929315E2,3.29119E3,1.9085137E3,3.221518E3,2.676054E3,9.381384E3,1.0455328E4,5.004697E3,1.4307104E4,1.2566473E4,5.39627E3,2.5180436E4,1.6714543E4,1.5437453E4,3.775134E4,1.1258246E3,1.4948895E4,6.2619336E3,3.227137E3,8.1187773E3,4.966572E3,1.7915133E3,8.454501E2,1.5981423E3,1.1058719E4,4.424506E3,5.53567E2,1.1364801E4,9.624221E2,9.27779E3,1.6322998E4,1.13283955E4,6.144467E3,5.5858325E3,1.1173479E4,1.3095652E3,5.100677E3,3.462101E2,1.417746E2,2.6796707E2,1.8661055E3,1.937279E3,4.254721E2,2.4627412E3,4.935326E3,1.382595E3,2.1772205E3,5.608114E3,5.6292777E4,2.4761613E4,1.1612884E5,4.5166777E4,2.3994167E3,2.7013315E3,1.1362887E3,3.8472832E3,1.0586232E3,9.951839E3,1.4063896E2,1.5435295E4,3.788718E3,4.9901924E3,1.951599E4],"tree_param":{"num_deleted":"0","num_feature":"7","num_nodes":"127","size_leaf_vector":"0"}},{"base_weights":[-1.7127542E-1,-2.5788838E-1,-4.611827E-2,-1.7496741E-1,-4.538851E-1,3.847697E-2,-9.772629E-2,-2.2756071E-1,-5.265638E-2,-6.3639534E-1,-3.3343083E-1,5.988113E-3,2.637396E-1,-4.7163808E-1,-4.8910707E-2,-4.7128257E-1,-2.0509285E-1,-8.473088E-2,8.565597E-2,-5.7741725E-1,-7.603866E-1,-2.204259E-1,-5.5713904E-1,5.257386E-2,-3.575156E-1,2.2266303E-1,4.190841E-1,-3.6687818E-1,-5.698969E-1,1.6167018E-1,-8.8190824E-2,-6.555077E-1,-4.179379E-1,-1.4707139E-1,-2.8409764E-1,-1.6903138E-2,-3.3812687E-1,4.856442E-2,4.297762E-1,-6.4283496E-1,-4.7906652E-1,-8.1365365E-1,-6.408522E-1,-4.7489792E-1,-1.321206E-1,-7.577777E-1,-3.593148E-1,2.4897201E-2,2.6828262E-1,-4.8922336E-1,-2.3793913E-1,3.0013618E-1,-3.9124288E-2,3.681368E-1,6.607693E-1,-4.5390773E-1,-1.4203891E-1,-5.559324E-1,-9.647456E-1,1.3776043E-1,4.493777E-1,-4.44124E-1,-4.793585E-2,-1.3156109E-1,-2.2261679E-1,-1.0529511E-1,-1.5866902E-1,-7.7344574E-2,-2.9359998E-2,-1.350973E-1,-3.328047E-2,-2.4614155E-2,1.8069899E-2,-1.2813151E-1,-7.678993E-2,3.411148E-2,-7.642686E-2,2.4336994E-1,9.7976565E-2,-1.7188072E-1,-2.0678163E-1,-1.581007E-1,-1.158101E-1,-2.3699965E-1,-2.7527767E-1,-2.0486079E-1,-1.4425203E-1,-1.9674355E-1,-1.1704313E-1,-5.6146156E-2,6.198895E-2,-2.0788889E-1,-2.6337478E-1,2.5145222E-2,-1.5607288E-1,1.7280878E-2,-7.2815664E-2,7.196941E-2,1.7836007E-1,-1.3245319E-1,-1.8064748E-1,-5.606779E-2,-1.3108122E-1,1.211962E-1,6.949139E-2,4.3235146E-2,-2.1399196E-2,1.0344451E-1,2.1113749E-1,2.5622913E-1,1.5490529E-1,-1.2528968E-1,-2.3278111E-1,1.1358648E-3,-8.38277E-2,-1.5897405E-1,-2.135602E-1,-1.8331684E-2,-2.9571825E-1,6.575623E-2,-9.218684E-3,1.1148833E-1,1.7934707E-1,-8.991399E-2,-1.6036922E-1,5.659211E-2,-2.7037827E-2],"categories":[],"categories_nodes":[],"categories_segments":[],"categories_sizes":[],"default_left":[0,0,0,0,0,0,0,0,0,0,0,0,0,0,0,0,0,0,0,0,0,0,0,0,0,0,0,0,0,0,0,0,0,0,0,0,0,0,0,0,0,0,0,0,0,0,0,0,0,0,0,0,0,0,0,0,0,0,0,0,0,0,0,0,0,0,0,0,0,0,0,0,0,0,0,0,0,0,0,0,0,0,0,0,0,0,0,0,0,0,0,0,0,0,0,0,0,0,0,0,0,0,0,0,0,0,0,0,0,0,0,0,0,0,0,0,0,0,0,0,0,0,0,0,0,0,0],"id":10,"left_children":[1,3,5,7,9,11,13,15,17,19,21,23,25,27,29,31,33,35,37,39,41,43,45,47,49,51,53,55,57,59,61,63,65,67,69,71,73,75,77,79,81,83,85,87,89,91,93,95,97,99,101,103,105,107,109,111,113,115,117,119,121,123,125,-1,-1,-1,-1,-1,-1,-1,-1,-1,-1,-1,-1,-1,-1,-1,-1,-1,-1,-1,-1,-1,-1,-1,-1,-1,-1,-1,-1,-1,-1,-1,-1,-1,-1,-1,-1,-1,-1,-1,-1,-1,-1,-1,-1,-1,-1,-1,-1,-1,-1,-1,-1,-1,-1,-1,-1,-1,-1,-1,-1,-1,-1,-1,-1],"loss_changes":[6.501246E3,5.760457E3,1.0708875E3,1.6022051E3,2.3163574E3,6.8019714E2,2.7807534E3,9.5367773E2,3.322713E2,3.0592188E2,1.6046895E3,1.375541E3,7.4660645E1,1.8088306E2,1.1146744E3,1.441958E2,7.309956E2,1.0449506E3,1.7994363E2,1.8237793E2,8.544238E1,9.477246E2,8.453247E2,4.2984894E2,1.452096E2,1.8796603E2,2.9909119E1,1.6660303E2,4.9509033E1,1.4567133E2,1.6272568E3,6.162805E1,8.452515E1,5.010276E2,1.9436558E3,2.4100952E2,9.3740845E1,2.5152847E2,5.3728775E1,5.4945312E1,5.0395752E1,2.2228027E1,2.7683838E1,1.6634448E2,5.838013E2,8.174463E1,7.651782E2,5.5855865E2,7.567828E1,2.3389893E1,4.9068207E1,5.0776794E1,1.2504735E1,1.5606842E1,1.1427109E1,7.140393E1,4.764964E1,3.5198975E1,5.792206E0,2.683774E2,1.853366E1,1.5055176E2,1.01844073E3,0E0,0E0,0E0,0E0,0E0,0E0,0E0,0E0,0E0,0E0,0E0,0E0,0E0,0E0,0E0,0E0,0E0,0E0,0E0,0E0,0E0,0E0,0E0,0E0,0E0,0E0,0E0,0E0,0E0,0E0,0E0,0E0,0E0,0E0,0E0,0E0,0E0,0E0,0E0,0E0,0E0,0E0,0E0,0E0,0E0,0E0,0E0,0E0,0E0,0E0,0E0,0E0,0E0,0E0,0E0,0E0,0E0,0E0,0E0,0E0,0E0,0E0,0E0,0E0],"parents":[2147483647,0,0,1,1,2,2,3,3,4,4,5,5,6,6,7,7,8,8,9,9,10,10,11,11,12,12,13,13,14,14,15,15,16,16,17,17,18,18,19,19,20,20,21,21,22,22,23,23,24,24,25,25,26,26,27,27,28,28,29,29,30,30,31,31,32,32,33,33,34,34,35,35,36,36,37,37,38,38,39,39,40,40,41,41,42,42,43,43,44,44,45,45,46,46,47,47,48,48,49,49,50,50,51,51,52,52,53,53,54,54,55,55,56,56,57,57,58,58,59,59,60,60,61,61,62,62],"right_children":[2,4,6,8,10,12,14,16,18,20,22,24,26,28,30,32,34,36,38,40,42,44,46,48,50,52,54,56,58,60,62,64,66,68,70,72,74,76,78,80,82,84,86,88,90,92,94,96,98,100,102,104,106,108,110,112,114,116,118,120,122,124,126,-1,-1,-1,-1,-1,-1,-1,-1,-1,-1,-1,-1,-1,-1,-1,-1,-1,-1,-1,-1,-1,-1,-1,-1,-1,-1,-1,-1,-1,-1,-1,-1,-1,-1,-1,-1,-1,-1,-1,-1,-1,-1,-1,-1,-1,-1,-1,-1,-1,-1,-1,-1,-1,-1,-1,-1,-1,-1,-1,-1,-1,-1,-1,-1],"split_conditions":[3E0,1.9E1,1.6E1,6.518007E-1,1.8E1,1.3E1,1.6E1,3.0233794E-1,9E0,3.2E1,4.7E1,1.3E1,1.5E1,1.9E1,2.2E1,1.5528397E-1,9E0,9E0,1.6E1,6.763E3,8.974E3,4.4242424E-1,4.6E1,1.1E1,1.1E1,1.5E1,1.7666666E1,1.5E1,1E1,2.1E1,2.2E1,4.2E1,1.1E1,3E0,9E0,4E0,2.1451E4,1.6E1,1.7E1,2.2E1,3.6365E4,6.1E1,6.0816E4,2.7253553E-1,3.4E1,6.3E1,6E1,1.1E1,1E1,5E0,7E0,1.4E1,8.384615E0,1.3E1,6E0,8E0,1.7E1,3.6E1,5.133333E0,2E1,6.972211E-1,2.4E1,2.8E1,-1.3156109E-1,-2.2261679E-1,-1.0529511E-1,-1.5866902E-1,-7.7344574E-2,-2.9359998E-2,-1.350973E-1,-3.328047E-2,-2.4614155E-2,1.8069899E-2,-1.2813151E-1,-7.678993E-2,3.411148E-2,-7.642686E-2,2.4336994E-1,9.7976565E-2,-1.7188072E-1,-2.0678163E-1,-1.581007E-1,-1.158101E-1,-2.3699965E-1,-2.7527767E-1,-2.0486079E-1,-1.4425203E-1,-1.9674355E-1,-1.1704313E-1,-5.6146156E-2,6.198895E-2,-2.0788889E-1,-2.6337478E-1,2.5145222E-2,-1.5607288E-1,1.7280878E-2,-7.2815664E-2,7.196941E-2,1.7836007E-1,-1.3245319E-1,-1.8064748E-1,-5.606779E-2,-1.3108122E-1,1.211962E-1,6.949139E-2,4.3235146E-2,-2.1399196E-2,1.0344451E-1,2.1113749E-1,2.5622913E-1,1.5490529E-1,-1.2528968E-1,-2.3278111E-1,1.1358648E-3,-8.38277E-2,-1.5897405E-1,-2.135602E-1,-1.8331684E-2,-2.9571825E-1,6.575623E-2,-9.218684E-3,1.1148833E-1,1.7934707E-1,-8.991399E-2,-1.6036922E-1,5.659211E-2,-2.7037827E-2],"split_indices":[4,0,0,3,6,6,6,3,6,0,0,0,6,0,0,3,0,0,6,2,2,3,6,6,6,0,1,6,4,6,6,2,0,6,6,6,2,0,0,0,2,0,2,3,6,0,0,0,4,4,4,0,1,4,4,4,0,0,1,0,3,0,0,0,0,0,0,0,0,0,0,0,0,0,0,0,0,0,0,0,0,0,0,0,0,0,0,0,0,0,0,0,0,0,0,0,0,0,0,0,0,0,0,0,0,0,0,0,0,0,0,0,0,0,0,0,0,0,0,0,0,0,0,0,0,0,0],"split_type":[0,0,0,0,0,0,0,0,0,0,0,0,0,0,0,0,0,0,0,0,0,0,0,0,0,0,0,0,0,0,0,0,0,0,0,0,0,0,0,0,0,0,0,0,0,0,0,0,0,0,0,0,0,0,0,0,0,0,0,0,0,0,0,0,0,0,0,0,0,0,0,0,0,0,0,0,0,0,0,0,0,0,0,0,0,0,0,0,0,0,0,0,0,0,0,0,0,0,0,0,0,0,0,0,0,0,0,0,0,0,0,0,0,0,0,0,0,0,0,0,0,0,0,0,0,0,0],"sum_hessian":[5.997332E5,3.544446E5,2.4528862E5,2.4907112E5,1.0537345E5,9.294105E4,1.5234758E5,1.7417545E5,7.489568E4,4.1893254E4,6.3480195E4,8.1226984E4,1.1714063E4,1.7591748E4,1.3475583E5,1.4699673E4,1.5947578E5,6.0797246E4,1.4098433E4,2.8393273E4,1.34999795E4,4.217681E4,2.1303387E4,7.2000445E4,9.226545E3,9.266284E3,2.4477793E3,8.516501E3,9.075247E3,2.118419E4,1.1357164E5,3.2981765E3,1.1401496E4,9.195011E4,6.752567E4,4.7960492E4,1.2836752E4,1.2727698E4,1.3707344E3,1.7048184E4,1.134509E4,9.334513E3,4.1654673E3,1.086434E4,3.1312469E4,1.0575054E4,1.0728332E4,6.3813875E4,8.1865674E3,4.389086E3,4.837459E3,7.150133E3,2.1161514E3,2.0237047E3,4.2407446E2,6.1391675E3,2.3773335E3,8.767574E3,3.0767206E2,1.9560135E4,1.6240537E3,1.1538508E4,1.0203313E5,9.4220325E2,2.3559731E3,7.1133555E3,4.288141E3,2.828517E4,6.3664938E4,3.4452027E4,3.3073645E4,2.6001387E4,2.1959105E4,6.1606694E3,6.676082E3,1.0478073E4,2.2496243E3,2.9038773E2,1.0803467E3,6.810313E3,1.0237871E4,7.484166E3,3.8609238E3,7.6109697E3,1.7235428E3,3.296566E3,8.689013E2,3.463823E3,7.400517E3,2.693678E4,4.3756914E3,6.873537E3,3.7015166E3,2.85827E3,7.870062E3,5.6865098E4,6.9487764E3,7.532921E3,6.5364606E2,3.088967E3,1.3001188E3,3.8514375E3,9.8602167E2,2.8397893E3,4.3103438E3,3.158149E2,1.8003365E3,1.8941255E3,1.2957918E2,1.7923067E2,2.448438E2,5.519691E3,6.194769E2,1.1537218E3,1.2236117E3,7.517604E3,1.2499708E3,7.0706196E0,3.0060144E2,1.3186907E4,6.373228E3,1.0681194E3,5.5593427E2,4.4450923E3,7.0934155E3,1.5441801E4,8.659133E4],"tree_param":{"num_deleted":"0","num_feature":"7","num_nodes":"127","size_leaf_vector":"0"}},{"base_weights":[-1.2885359E-1,-3.525478E-1,-9.575251E-2,-2.6962733E-1,-4.835906E-1,-1.8523198E-1,-4.6057254E-2,-3.3349568E-1,-1.4693418E-1,-6.307062E-1,-3.1452224E-1,-1.3337472E-1,-3.8240877E-1,-3.582957E-2,-3.1989288E-1,-1.9010207E-1,-3.9005667E-1,-2.7559498E-1,-1.14944965E-1,-7.4800813E-1,-5.647339E-1,-4.141502E-1,-1.7222147E-1,4.8122935E-2,-1.6166636E-1,-5.81149E-1,-1.9159867E-1,-5.0519735E-2,1.1566531E-1,-7.7694017E-1,-7.049737E-2,-2.9128835E-1,-9.501305E-2,-5.124593E-1,-2.8491047E-1,-1.6926838E-1,-3.7519774E-1,-4.616178E-2,-1.7912325E-1,-6.8542594E-1,-8.3972377E-1,-5.0956476E-1,-7.0041263E-1,-3.8070956E-1,-6.9909984E-1,-2.449165E-1,-5.3084694E-2,-7.712938E-2,9.8168276E-2,-2.9127958E-1,-9.562485E-2,-6.362645E-1,-4.2837209E-1,1.3618338E-1,-3.0700025E-1,-1.0372814E-2,-1.3050188E-1,9.702529E-2,6.843901E-1,-6.0508955E-1,-8.2772905E-1,-1.5791063E-1,2.9180756E-1,-3.4877714E-2,-1.04164384E-1,3.6061905E-2,-4.6074975E-2,-2.0133854E-1,-1.4340405E-1,-2.883936E-2,-1.1362377E-1,-5.5697717E-2,1.1153585E-1,-1.5039252E-1,-8.250403E-2,2.7312173E-2,-2.4162589E-2,-5.7288036E-2,3.807374E-2,-2.2531326E-1,-1.787498E-1,-2.6689044E-1,-2.3806086E-1,-1.8860644E-1,-1.1191756E-1,-2.331864E-1,-1.6558439E-1,-1.503748E-1,-9.71399E-2,-2.4743089E-1,-1.6329454E-1,-5.754588E-2,-1.4264686E-1,-1.9750094E-2,2.1974066E-1,-3.690635E-2,5.9742637E-2,2.6946338E-2,1.3954271E-1,-1.0031437E-1,-3.4822352E-2,9.761933E-3,-4.1637987E-2,-1.6851023E-1,-2.2232622E-1,-1.16215006E-1,-1.8769336E-1,9.2441095E-3,1.3253123E-1,-1.6662996E-1,-5.8530755E-2,-6.2934044E-3,7.502103E-2,-1.4066376E-1,-1.502827E-2,4.7817368E-2,5.4747416E-3,1.8406886E-1,3.1653446E-1,-2.1522012E-1,-8.841334E-2,-2.4002956E-1,-2.9544467E-1,1.5945928E-2,-9.485169E-2,6.0119327E-2,3.194707E-1],"categories":[],"categories_nodes":[],"categories_segments":[],"categories_sizes":[],"default_left":[0,0,0,0,0,0,0,0,0,0,0,0,0,0,0,0,0,0,0,0,0,0,0,0,0,0,0,0,0,0,0,0,0,0,0,0,0,0,0,0,0,0,0,0,0,0,0,0,0,0,0,0,0,0,0,0,0,0,0,0,0,0,0,0,0,0,0,0,0,0,0,0,0,0,0,0,0,0,0,0,0,0,0,0,0,0,0,0,0,0,0,0,0,0,0,0,0,0,0,0,0,0,0,0,0,0,0,0,0,0,0,0,0,0,0,0,0,0,0,0,0,0,0,0,0,0,0],"id":11,"left_children":[1,3,5,7,9,11,13,15,17,19,21,23,25,27,29,31,33,35,37,39,41,43,45,47,49,51,53,55,57,59,61,63,65,67,69,71,73,75,77,79,81,83,85,87,89,91,93,95,97,99,101,103,105,107,109,111,113,115,117,119,121,123,125,-1,-1,-1,-1,-1,-1,-1,-1,-1,-1,-1,-1,-1,-1,-1,-1,-1,-1,-1,-1,-1,-1,-1,-1,-1,-1,-1,-1,-1,-1,-1,-1,-1,-1,-1,-1,-1,-1,-1,-1,-1,-1,-1,-1,-1,-1,-1,-1,-1,-1,-1,-1,-1,-1,-1,-1,-1,-1,-1,-1,-1,-1,-1,-1],"loss_changes":[4.249365E3,8.036885E2,2.2229824E3,3.549973E2,7.128325E2,1.8251826E3,9.0017285E2,2.4159058E2,6.3815613E1,1.18194824E2,1.890581E2,7.257532E2,1.4094531E3,6.8955493E2,1.3190259E3,8.108783E1,2.748518E2,3.264258E1,5.484326E1,3.107544E1,7.310693E1,7.449805E1,4.7580795E1,1.1948804E2,1.0466421E3,1.5303223E2,7.174248E2,9.069687E2,2.9028806E2,3.515625E1,2.3719499E2,3.9934967E1,5.482272E1,5.363501E1,2.0360553E2,1.3331818E1,1.9997803E1,2.8304815E1,2.330835E1,1.8854492E1,4.4399414E0,1.132843E2,3.1921265E1,4.802289E1,1.5557465E1,4.1688736E1,2.0917162E1,6.902475E1,4.167827E1,3.1163867E2,4.4817657E2,1.0414209E2,3.8811584E1,1.590219E2,3.8982947E2,5.1943463E2,2.5683015E3,1.3029448E2,2.2171143E1,3.2404633E1,1.2886963E1,2.0154659E2,1.0266796E2,0E0,0E0,0E0,0E0,0E0,0E0,0E0,0E0,0E0,0E0,0E0,0E0,0E0,0E0,0E0,0E0,0E0,0E0,0E0,0E0,0E0,0E0,0E0,0E0,0E0,0E0,0E0,0E0,0E0,0E0,0E0,0E0,0E0,0E0,0E0,0E0,0E0,0E0,0E0,0E0,0E0,0E0,0E0,0E0,0E0,0E0,0E0,0E0,0E0,0E0,0E0,0E0,0E0,0E0,0E0,0E0,0E0,0E0,0E0,0E0,0E0,0E0,0E0,0E0],"parents":[2147483647,0,0,1,1,2,2,3,3,4,4,5,5,6,6,7,7,8,8,9,9,10,10,11,11,12,12,13,13,14,14,15,15,16,16,17,17,18,18,19,19,20,20,21,21,22,22,23,23,24,24,25,25,26,26,27,27,28,28,29,29,30,30,31,31,32,32,33,33,34,34,35,35,36,36,37,37,38,38,39,39,40,40,41,41,42,42,43,43,44,44,45,45,46,46,47,47,48,48,49,49,50,50,51,51,52,52,53,53,54,54,55,55,56,56,57,57,58,58,59,59,60,60,61,61,62,62],"right_children":[2,4,6,8,10,12,14,16,18,20,22,24,26,28,30,32,34,36,38,40,42,44,46,48,50,52,54,56,58,60,62,64,66,68,70,72,74,76,78,80,82,84,86,88,90,92,94,96,98,100,102,104,106,108,110,112,114,116,118,120,122,124,126,-1,-1,-1,-1,-1,-1,-1,-1,-1,-1,-1,-1,-1,-1,-1,-1,-1,-1,-1,-1,-1,-1,-1,-1,-1,-1,-1,-1,-1,-1,-1,-1,-1,-1,-1,-1,-1,-1,-1,-1,-1,-1,-1,-1,-1,-1,-1,-1,-1,-1,-1,-1,-1,-1,-1,-1,-1,-1,-1,-1,-1,-1,-1,-1],"split_conditions":[4.2201835E-1,2.1E1,2E0,2E0,2E0,2.2E1,7.9E1,6E0,2.8315413E-1,2.5903615E-1,4E0,4E0,2.2E1,1.3E1,7.7E1,3E0,6E0,3.12E2,9.04E2,4.3E1,4.8E1,7.4E1,7E0,2E0,4E0,1.8906E4,3.2E1,2.2E1,4E1,8.3E1,2.7E1,9.363636E0,1.9E2,2.154288E-1,1.1E1,6E0,2.3214285E-1,6E0,7E0,1.9178082E-1,1.6666667E-1,2E1,4.9E1,2.9354838E-1,7E1,6.1E1,2.8E1,7.1314E4,8.32555E-1,4.0045E4,7E0,3.2E1,4.4E1,2.7E1,3.2E1,1.9E1,2.1E1,4.3E1,5.2E1,7.3E1,1.1E1,9.7E1,6.1E1,-3.4877714E-2,-1.04164384E-1,3.6061905E-2,-4.6074975E-2,-2.0133854E-1,-1.4340405E-1,-2.883936E-2,-1.1362377E-1,-5.5697717E-2,1.1153585E-1,-1.5039252E-1,-8.250403E-2,2.7312173E-2,-2.4162589E-2,-5.7288036E-2,3.807374E-2,-2.2531326E-1,-1.787498E-1,-2.6689044E-1,-2.3806086E-1,-1.8860644E-1,-1.1191756E-1,-2.331864E-1,-1.6558439E-1,-1.503748E-1,-9.71399E-2,-2.4743089E-1,-1.6329454E-1,-5.754588E-2,-1.4264686E-1,-1.9750094E-2,2.1974066E-1,-3.690635E-2,5.9742637E-2,2.6946338E-2,1.3954271E-1,-1.0031437E-1,-3.4822352E-2,9.761933E-3,-4.1637987E-2,-1.6851023E-1,-2.2232622E-1,-1.16215006E-1,-1.8769336E-1,9.2441095E-3,1.3253123E-1,-1.6662996E-1,-5.8530755E-2,-6.2934044E-3,7.502103E-2,-1.4066376E-1,-1.502827E-2,4.7817368E-2,5.4747416E-3,1.8406886E-1,3.1653446E-1,-2.1522012E-1,-8.841334E-2,-2.4002956E-1,-2.9544467E-1,1.5945928E-2,-9.485169E-2,6.0119327E-2,3.194707E-1],"split_indices":[3,0,4,4,4,0,0,0,3,3,4,0,6,4,6,6,6,2,2,0,0,0,4,6,6,2,0,0,4,0,4,1,2,3,0,4,3,0,4,3,3,6,6,3,6,0,4,2,3,2,0,0,0,6,6,6,6,0,4,6,4,0,4,0,0,0,0,0,0,0,0,0,0,0,0,0,0,0,0,0,0,0,0,0,0,0,0,0,0,0,0,0,0,0,0,0,0,0,0,0,0,0,0,0,0,0,0,0,0,0,0,0,0,0,0,0,0,0,0,0,0,0,0,0,0,0,0],"split_type":[0,0,0,0,0,0,0,0,0,0,0,0,0,0,0,0,0,0,0,0,0,0,0,0,0,0,0,0,0,0,0,0,0,0,0,0,0,0,0,0,0,0,0,0,0,0,0,0,0,0,0,0,0,0,0,0,0,0,0,0,0,0,0,0,0,0,0,0,0,0,0,0,0,0,0,0,0,0,0,0,0,0,0,0,0,0,0,0,0,0,0,0,0,0,0,0,0,0,0,0,0,0,0,0,0,0,0,0,0,0,0,0,0,0,0,0,0,0,0,0,0,0,0,0,0,0,0],"sum_hessian":[5.7389144E5,7.397375E4,4.999177E5,4.530744E4,2.866631E4,1.7850511E5,3.2141256E5,2.9795549E4,1.5511893E4,1.5326851E4,1.3339459E4,1.4133567E5,3.7169445E4,3.0984122E5,1.1571352E4,8.429476E3,2.1366072E4,3.0872686E3,1.2424625E4,5.5134043E3,9.813446E3,7.8450513E3,5.494408E3,1.9060076E4,1.22275586E5,1.8205389E4,1.8964055E4,2.8245297E5,2.738825E4,4.0842878E3,7.487064E3,4.0828086E3,4.346667E3,9.871088E3,1.1494984E4,1.4945383E3,1.5927301E3,5.9979893E3,6.4266353E3,3.28224E3,2.2311646E3,6.9800127E3,2.8334333E3,7.0231733E3,8.2187787E2,3.4116362E3,2.0827722E3,5.4412646E3,1.3618812E4,4.1271887E4,8.10037E4,1.337653E4,4.8288584E3,4.9380464E3,1.4026009E4,1.8805844E5,9.439452E4,2.6520217E4,8.680321E2,9.346607E2,3.149627E3,6.0322324E3,1.4548318E3,9.8940424E2,3.0934043E3,9.296318E2,3.4170354E3,1.757402E3,8.113686E3,3.8173064E3,7.677678E3,1.4512317E3,4.3306644E1,7.033541E2,8.8937604E2,1.2014934E3,4.7964956E3,6.187684E3,2.3895143E2,1.8903573E3,1.3918827E3,1.0635824E3,1.167582E3,3.7254019E3,3.2546106E3,1.8640096E3,9.6942365E2,2.2498984E3,4.773275E3,4.5121103E2,3.706668E2,2.7745403E3,6.370958E2,2.0504116E3,3.236046E1,4.6666387E3,7.7462616E2,1.3317146E4,3.016656E2,3.3122598E4,8.149288E3,2.0409455E4,6.0594246E4,7.820162E3,5.556368E3,4.00059E3,8.282685E2,3.6727463E3,1.2653002E3,4.354432E3,9.671577E3,1.8070123E5,7.3572095E3,1.8123033E4,7.6271484E4,1.4801255E4,1.1718962E4,7.310243E2,1.3700784E2,6.853533E2,2.4930743E2,2.6836768E3,4.6595023E2,2.5851895E3,3.447043E3,1.3021289E3,1.5270296E2],"tree_param":{"num_deleted":"0","num_feature":"7","num_nodes":"127","size_leaf_vector":"0"}},{"base_weights":[-9.5565304E-2,-1.9004603E-1,-4.2668644E-2,-2.727419E-1,-1.08507484E-1,-8.344519E-2,2.622343E-2,-1.5595219E-1,-4.0068704E-1,-7.516847E-2,-2.523639E-1,-1.2627277E-1,-3.1811193E-2,8.298762E-3,1.5225272E-1,-1.9819526E-2,-1.8230377E-1,-3.4902418E-1,-5.883202E-1,-8.295788E-2,1.9950819E-1,-6.016453E-1,-1.292281E-1,-5.7832345E-2,-2.0670334E-1,-2.461299E-2,-6.7490405E-1,-1.1379108E-1,1.876087E-2,6.886185E-2,1.9690786E-1,-8.6697094E-2,7.5369336E-2,-2.9952365E-1,-9.7099155E-2,-4.8532948E-1,-2.2420765E-1,-6.973083E-1,-4.4808418E-1,-7.038968E-2,-3.752346E-1,4.3718845E-1,1.3092354E-1,-4.7449926E-1,-6.837165E-1,-3.643105E-1,-5.0635643E-2,-7.8257985E-2,1.2786698E-1,-3.756124E-1,-1.1980997E-1,-3.3565715E-3,-1.6068947E-1,-2.6992083E-2,-7.9225796E-1,-1.0094151E-2,-3.073873E-1,1.1734927E-1,1.6784163E-3,1.2782995E-1,-1.1453448E-1,6.196383E-1,1.6164424E-1,-9.345622E-3,-6.968168E-2,6.9137886E-2,3.0551252E-3,-2.4888178E-2,-9.742017E-2,-3.3857673E-2,4.3723673E-2,-2.1924393E-1,-1.4028531E-1,-8.556774E-2,1.9456811E-2,-1.9378623E-1,-2.4890573E-1,-4.2686876E-2,-1.6634786E-1,-2.320607E-2,7.026661E-2,-1.2543581E-1,-2.849208E-2,2.2965278E-1,8.660157E-2,-1.32434005E-2,1.15824275E-1,-1.3638747E-1,-2.2714795E-1,-1.9278854E-1,-2.3879991E-1,-1.5968105E-1,-5.9447907E-2,-5.398551E-2,3.262102E-3,1.159641E-2,-3.2769375E-2,1.8245596E-2,7.4675284E-2,-1.2872778E-1,-6.1262563E-2,-1.70824E-4,-6.539944E-2,-5.0430065E-3,8.276902E-2,-1.7381331E-1,-3.3615096E-3,8.055469E-2,-7.27413E-2,-1.6601562E-1,-3.111478E-1,3.758105E-2,-4.548929E-2,-1.5512559E-1,-8.1698366E-2,2.5157737E-2,7.4902184E-2,-7.870249E-2,8.665387E-3,-7.648996E-3,5.251382E-2,-1.324907E-2,-8.1407964E-2,1.4046003E-1,2.988238E-1,3.6405284E-2,6.694718E-2],"categories":[],"categories_nodes":[],"categories_segments":[],"categories_sizes":[],"default_left":[0,0,0,0,0,0,0,0,0,0,0,0,0,0,0,0,0,0,0,0,0,0,0,0,0,0,0,0,0,0,0,0,0,0,0,0,0,0,0,0,0,0,0,0,0,0,0,0,0,0,0,0,0,0,0,0,0,0,0,0,0,0,0,0,0,0,0,0,0,0,0,0,0,0,0,0,0,0,0,0,0,0,0,0,0,0,0,0,0,0,0,0,0,0,0,0,0,0,0,0,0,0,0,0,0,0,0,0,0,0,0,0,0,0,0,0,0,0,0,0,0,0,0,0,0,0,0],"id":12,"left_children":[1,3,5,7,9,11,13,15,17,19,21,23,25,27,29,31,33,35,37,39,41,43,45,47,49,51,53,55,57,59,61,63,65,67,69,71,73,75,77,79,81,83,85,87,89,91,93,95,97,99,101,103,105,107,109,111,113,115,117,119,121,123,125,-1,-1,-1,-1,-1,-1,-1,-1,-1,-1,-1,-1,-1,-1,-1,-1,-1,-1,-1,-1,-1,-1,-1,-1,-1,-1,-1,-1,-1,-1,-1,-1,-1,-1,-1,-1,-1,-1,-1,-1,-1,-1,-1,-1,-1,-1,-1,-1,-1,-1,-1,-1,-1,-1,-1,-1,-1,-1,-1,-1,-1,-1,-1,-1],"loss_changes":[2.7746929E3,1.3436274E3,9.9986017E2,1.478248E3,4.8120837E2,4.944264E2,2.9895782E2,1.855409E2,4.5743994E2,1.743092E2,8.118523E2,6.727466E2,4.692479E2,1.479946E2,6.1349243E1,5.341364E1,4.3277686E2,6.29728E2,1.5544873E2,2.9096442E2,3.6566925E1,5.1019287E1,2.5788037E2,2.504661E2,8.2459546E2,2.8997653E2,8.529556E1,1.8358456E2,1.7972707E2,6.2179436E1,1.5986911E2,3.984007E1,3.5002083E1,9.955469E1,9.606058E1,7.6595215E1,3.40903E2,3.8435303E1,1.4502844E2,1.6113187E2,3.921042E1,2.4291191E1,7.796675E1,1.0517029E1,1.3273193E1,9.749164E1,8.322246E1,2.1542041E2,5.3094193E1,1.748606E2,4.343836E2,3.257596E2,8.47703E2,1.10877495E1,5.499945E1,1.1413371E2,2.3309906E1,6.982185E1,6.53363E2,3.1497414E1,1.5428406E1,4.661621E1,2.4526123E1,0E0,0E0,0E0,0E0,0E0,0E0,0E0,0E0,0E0,0E0,0E0,0E0,0E0,0E0,0E0,0E0,0E0,0E0,0E0,0E0,0E0,0E0,0E0,0E0,0E0,0E0,0E0,0E0,0E0,0E0,0E0,0E0,0E0,0E0,0E0,0E0,0E0,0E0,0E0,0E0,0E0,0E0,0E0,0E0,0E0,0E0,0E0,0E0,0E0,0E0,0E0,0E0,0E0,0E0,0E0,0E0,0E0,0E0,0E0,0E0,0E0,0E0,0E0,0E0],"parents":[2147483647,0,0,1,1,2,2,3,3,4,4,5,5,6,6,7,7,8,8,9,9,10,10,11,11,12,12,13,13,14,14,15,15,16,16,17,17,18,18,19,19,20,20,21,21,22,22,23,23,24,24,25,25,26,26,27,27,28,28,29,29,30,30,31,31,32,32,33,33,34,34,35,35,36,36,37,37,38,38,39,39,40,40,41,41,42,42,43,43,44,44,45,45,46,46,47,47,48,48,49,49,50,50,51,51,52,52,53,53,54,54,55,55,56,56,57,57,58,58,59,59,60,60,61,61,62,62],"right_children":[2,4,6,8,10,12,14,16,18,20,22,24,26,28,30,32,34,36,38,40,42,44,46,48,50,52,54,56,58,60,62,64,66,68,70,72,74,76,78,80,82,84,86,88,90,92,94,96,98,100,102,104,106,108,110,112,114,116,118,120,122,124,126,-1,-1,-1,-1,-1,-1,-1,-1,-1,-1,-1,-1,-1,-1,-1,-1,-1,-1,-1,-1,-1,-1,-1,-1,-1,-1,-1,-1,-1,-1,-1,-1,-1,-1,-1,-1,-1,-1,-1,-1,-1,-1,-1,-1,-1,-1,-1,-1,-1,-1,-1,-1,-1,-1,-1,-1,-1,-1,-1,-1,-1,-1,-1,-1],"split_conditions":[5.596261E-1,2E0,6.9180727E-1,1.2E1,4E1,3E0,2.64683E5,4E0,4.1E1,3.4E1,3.8E1,1.1E1,6.9153124E-1,3E0,7E0,3E0,4E0,1.2E1,4E1,3.4E1,3.6E1,4.5E1,4.3333335E0,8E0,1.1E1,5.2E1,6.757E3,6E0,6E0,7E0,2E0,1.7777779E1,7.5E2,6.857143E0,1E1,1.764706E-1,1.4285714E1,6.1E1,5.3E1,3E1,3.3E1,9.94E2,3.7E1,1.1E1,6.2E1,7.9E1,4.4E1,4E0,1.7333334E1,3.5791E4,2.3E1,4.3E1,5.2E1,1.5E1,1.8E1,1.4347826E1,3.773E3,5E0,6E0,3.7945E5,3E0,1.6E1,2.4E1,-9.345622E-3,-6.968168E-2,6.9137886E-2,3.0551252E-3,-2.4888178E-2,-9.742017E-2,-3.3857673E-2,4.3723673E-2,-2.1924393E-1,-1.4028531E-1,-8.556774E-2,1.9456811E-2,-1.9378623E-1,-2.4890573E-1,-4.2686876E-2,-1.6634786E-1,-2.320607E-2,7.026661E-2,-1.2543581E-1,-2.849208E-2,2.2965278E-1,8.660157E-2,-1.32434005E-2,1.15824275E-1,-1.3638747E-1,-2.2714795E-1,-1.9278854E-1,-2.3879991E-1,-1.5968105E-1,-5.9447907E-2,-5.398551E-2,3.262102E-3,1.159641E-2,-3.2769375E-2,1.8245596E-2,7.4675284E-2,-1.2872778E-1,-6.1262563E-2,-1.70824E-4,-6.539944E-2,-5.0430065E-3,8.276902E-2,-1.7381331E-1,-3.3615096E-3,8.055469E-2,-7.27413E-2,-1.6601562E-1,-3.111478E-1,3.758105E-2,-4.548929E-2,-1.5512559E-1,-8.1698366E-2,2.5157737E-2,7.4902184E-2,-7.870249E-2,8.665387E-3,-7.648996E-3,5.251382E-2,-1.324907E-2,-8.1407964E-2,1.4046003E-1,2.988238E-1,3.6405284E-2,6.694718E-2],"split_indices":[3,4,3,0,0,4,2,0,0,6,6,0,3,6,6,6,6,6,6,0,0,0,1,6,6,0,2,0,0,0,4,1,2,1,6,3,1,0,0,6,6,2,6,4,0,6,6,0,1,2,0,6,6,0,0,1,2,6,6,2,4,6,6,0,0,0,0,0,0,0,0,0,0,0,0,0,0,0,0,0,0,0,0,0,0,0,0,0,0,0,0,0,0,0,0,0,0,0,0,0,0,0,0,0,0,0,0,0,0,0,0,0,0,0,0,0,0,0,0,0,0,0,0,0,0,0,0],"split_type":[0,0,0,0,0,0,0,0,0,0,0,0,0,0,0,0,0,0,0,0,0,0,0,0,0,0,0,0,0,0,0,0,0,0,0,0,0,